<?xml version="1.0"?>
<MethodSetup Method="DL::DNN_CPU">
  <GeneralInfo>
    <Info name="TMVA Release" value="4.2.1 [262657]"/>
    <Info name="ROOT Release" value="6.22/02 [398850]"/>
    <Info name="Creator" value="mcdmytro"/>
    <Info name="Date" value="Thu Dec  2 18:07:24 2021"/>
    <Info name="Host" value="Linux MSI 5.10.16.3-microsoft-standard-WSL2 #1 SMP Fri Apr 2 22:23:49 UTC 2021 x86_64 x86_64 x86_64 GNU/Linux"/>
    <Info name="Dir" value="/mnt/c/shared/DsDs2317-GitSynch/DsDs2317-study/TMVA/PreSelectionApplied"/>
    <Info name="Training events" value="5000"/>
    <Info name="TrainingTime" value="1.84581249e+02"/>
    <Info name="AnalysisType" value="Classification"/>
  </GeneralInfo>
  <Options>
    <Option name="V" modified="Yes">True</Option>
    <Option name="VerbosityLevel" modified="No">Verbose</Option>
    <Option name="VarTransform" modified="Yes">N</Option>
    <Option name="H" modified="Yes">False</Option>
    <Option name="CreateMVAPdfs" modified="No">False</Option>
    <Option name="IgnoreNegWeightsInTraining" modified="No">False</Option>
    <Option name="InputLayout" modified="No">0|0|0</Option>
    <Option name="BatchLayout" modified="No">0|0|0</Option>
    <Option name="Layout" modified="Yes">TANH|128,TANH|128,TANH|128,LINEAR</Option>
    <Option name="ErrorStrategy" modified="Yes">CROSSENTROPY</Option>
    <Option name="WeightInitialization" modified="Yes">XAVIERUNIFORM</Option>
    <Option name="RandomSeed" modified="No">0</Option>
    <Option name="ValidationSize" modified="No">20%</Option>
    <Option name="Architecture" modified="Yes">CPU</Option>
    <Option name="TrainingStrategy" modified="Yes">LearningRate=1e-2,Momentum=0.9,Repetitions=1,ConvergenceSteps=30,BatchSize=256,TestRepetitions=10,WeightDecay=1e-4,Regularization=None,DropConfig=0.0+0.5+0.5+0.5,</Option>
  </Options>
  <Variables NVar="5">
    <Variable VarIndex="0" Expression="pst_ds17" Label="pst_ds17" Title="pst_ds17" Unit="" Internal="pst_ds17" Type="F" Min="7.04832673e-02" Max="4.73005152e+00"/>
    <Variable VarIndex="1" Expression="hel_phi" Label="hel_phi" Title="hel_phi" Unit="" Internal="hel_phi" Type="F" Min="1.75855341e-04" Max="9.99992073e-01"/>
    <Variable VarIndex="2" Expression="pc2_ds17" Label="pc2_ds17" Title="pc2_ds17" Unit="" Internal="pc2_ds17" Type="F" Min="0.00000000e+00" Max="9.99999940e-01"/>
    <Variable VarIndex="3" Expression="pc2_dsii" Label="pc2_dsii" Title="pc2_dsii" Unit="" Internal="pc2_dsii" Type="F" Min="0.00000000e+00" Max="9.99359250e-01"/>
    <Variable VarIndex="4" Expression="pc2_pi0" Label="pc2_pi0" Title="pc2_pi0" Unit="" Internal="pc2_pi0" Type="F" Min="5.58792195e-08" Max="1.00000000e+00"/>
  </Variables>
  <Spectators NSpec="2">
    <Spectator SpecIndex="0" Expression="dm_ds17" Label="dm_ds17" Title="F" Unit="" Internal="dm_ds17" Type="F" Min="2.50198841e-01" Max="4.49937463e-01"/>
    <Spectator SpecIndex="1" Expression="mc_ds17" Label="mc_ds17" Title="F" Unit="" Internal="mc_ds17" Type="F" Min="0.00000000e+00" Max="1.04310000e+04"/>
  </Spectators>
  <Classes NClass="2">
    <Class Name="Signal" Index="0"/>
    <Class Name="Background" Index="1"/>
  </Classes>
  <Transformations NTransformations="1">
    <Transform Name="Normalize">
      <Selection>
        <Input NInputs="5">
          <Input Type="Variable" Label="pst_ds17" Expression="pst_ds17"/>
          <Input Type="Variable" Label="hel_phi" Expression="hel_phi"/>
          <Input Type="Variable" Label="pc2_ds17" Expression="pc2_ds17"/>
          <Input Type="Variable" Label="pc2_dsii" Expression="pc2_dsii"/>
          <Input Type="Variable" Label="pc2_pi0" Expression="pc2_pi0"/>
        </Input>
        <Output NOutputs="5">
          <Output Type="Variable" Label="pst_ds17" Expression="pst_ds17"/>
          <Output Type="Variable" Label="hel_phi" Expression="hel_phi"/>
          <Output Type="Variable" Label="pc2_ds17" Expression="pc2_ds17"/>
          <Output Type="Variable" Label="pc2_dsii" Expression="pc2_dsii"/>
          <Output Type="Variable" Label="pc2_pi0" Expression="pc2_pi0"/>
        </Output>
      </Selection>
      <Class ClassIndex="0">
        <Ranges>
          <Range Index="0" Min="5.9716939926147461e-01" Max="4.7300515174865723e+00"/>
          <Range Index="1" Min="1.2682701461017132e-02" Max="9.9999207258224487e-01"/>
          <Range Index="2" Min="0.0000000000000000e+00" Max="9.9999994039535522e-01"/>
          <Range Index="3" Min="0.0000000000000000e+00" Max="9.9935925006866455e-01"/>
          <Range Index="4" Min="1.9072538748332590e-07" Max="9.9999934434890747e-01"/>
        </Ranges>
      </Class>
      <Class ClassIndex="1">
        <Ranges>
          <Range Index="0" Min="7.0483267307281494e-02" Max="4.6234235763549805e+00"/>
          <Range Index="1" Min="1.7585534078534693e-04" Max="9.9948364496231079e-01"/>
          <Range Index="2" Min="0.0000000000000000e+00" Max="9.9999898672103882e-01"/>
          <Range Index="3" Min="0.0000000000000000e+00" Max="9.9680399894714355e-01"/>
          <Range Index="4" Min="5.5879219473808917e-08" Max="1.0000000000000000e+00"/>
        </Ranges>
      </Class>
      <Class ClassIndex="2">
        <Ranges>
          <Range Index="0" Min="7.0483267307281494e-02" Max="4.7300515174865723e+00"/>
          <Range Index="1" Min="1.7585534078534693e-04" Max="9.9999207258224487e-01"/>
          <Range Index="2" Min="0.0000000000000000e+00" Max="9.9999994039535522e-01"/>
          <Range Index="3" Min="0.0000000000000000e+00" Max="9.9935925006866455e-01"/>
          <Range Index="4" Min="5.5879219473808917e-08" Max="1.0000000000000000e+00"/>
        </Ranges>
      </Class>
    </Transform>
  </Transformations>
  <MVAPdfs/>
  <Weights NetDepth="4" InputDepth="1" InputHeight="1" InputWidth="5" BatchSize="1" BatchDepth="1" BatchHeight="256" BatchWidth="5" LossFunction="C" Initialization="F" Regularization="0" OutputFunction="S" WeightDecay="9.9999997473787516e-05">
    <DenseLayer Width="128" ActivationFunction="3">
      <Weights Rows="128" Columns="5">
        1.622527e+00  3.624217e-01  2.544131e-01  -1.172578e-02  4.055960e-01  -2.429111e+00  -2.311477e-01  6.732576e-01  1.332190e-01  -5.071908e-02  1.541419e+00  8.595811e-01  -4.231661e-01  9.327420e-01  2.400741e-01  2.428991e+00  1.285299e-01  2.345713e-01  1.244024e-01  5.828671e-01  -2.329037e+00  -8.782405e-01  -2.701467e-01  5.150018e-02  -2.720174e-02  2.126471e+00  1.265600e+00  5.963883e-01  -1.950864e-01  1.039242e-02  -1.441763e+00  -2.348220e+00  -1.007609e-01  3.893770e-01  4.882647e-01  1.724735e+00  -3.225126e-02  1.150231e-01  -3.553793e-01  7.259405e-01  1.091231e+00  5.463231e-01  1.157113e+00  7.845312e-01  1.402845e+00  -1.775942e+00  -1.023645e+00  -1.857731e-01  -5.594051e-01  6.607239e-01  -1.479123e+00  -3.387482e-01  3.504274e-01  -7.614077e-01  2.261666e-01  2.423480e-01  -4.329212e-01  1.641453e-01  1.031770e-01  2.336988e+00  -2.835778e+00  -4.445688e-01  1.558427e+00  2.198772e-01  -9.724815e-02  -2.905214e-01  1.877368e+00  -4.596581e-01  -5.862263e-01  1.032170e+00  -1.659468e+00  -6.952801e-02  -2.449415e-01  -4.124246e-02  -4.063959e-01  2.427519e+00  5.379797e-01  5.827522e-01  2.815582e-01  -4.019558e-01  1.272936e+00  -4.128848e-01  -3.556288e-01  2.122487e-01  -3.889154e-01  -1.829135e+00  -1.482418e+00  -3.601242e-01  3.082502e-01  4.950992e-01  -2.713225e-01  -1.144456e+00  -1.095467e-01  4.944214e-01  -1.767091e+00  1.756322e+00  7.193345e-01  4.126863e-01  -2.855242e-01  6.268606e-01  1.403895e+00  3.839494e-01  1.064568e-01  3.933364e-01  4.193268e-01  -2.190251e+00  -9.888335e-01  -6.502403e-01  -3.080975e-01  6.070609e-01  -1.899282e+00  -7.737159e-01  5.757376e-01  -9.472840e-01  -4.913856e-01  1.318075e+00  -3.070532e-01  1.193638e+00  -8.413575e-01  7.045062e-01  -2.000158e+00  -1.644509e-01  -4.462294e-01  -1.207156e+00  1.063582e+00  2.429195e+00  -1.813874e-01  5.198920e-01  -1.104479e-01  2.490808e-01  8.619508e-02  -6.884834e-02  -1.195612e+00  -1.642305e+00  -1.357097e+00  -2.014040e+00  3.867970e-01  6.195653e-02  2.785170e-01  -3.633172e-01  -2.504568e+00  -6.664118e-01  2.323412e-03  -2.461638e-01  -3.167184e-01  1.214789e+00  2.481921e+00  1.283619e-01  -5.166001e-01  -5.760715e-01  1.404464e+00  6.512329e-01  -5.267959e-01  1.709521e+00  -6.345248e-01  1.805627e+00  -2.390916e-01  -1.999964e-02  1.197806e-01  3.846521e-01  1.635547e+00  -4.924178e-01  2.680035e-01  1.771069e+00  4.631178e-01  -1.540214e+00  -7.635456e-01  4.164048e-01  -4.202290e-01  -3.204941e-01  -1.239826e+00  -7.375360e-01  2.229766e-01  -3.811432e-01  5.119062e-01  2.325190e+00  2.774460e-01  -1.853252e+00  -1.224363e-01  1.600140e-01  -6.355219e-01  1.785159e+00  -6.087611e-01  -5.568752e-01  8.746140e-01  -1.642386e+00  1.573789e+00  1.067151e+00  1.982189e-02  1.580370e-01  2.268317e+00  5.209460e-01  -2.099118e-01  3.071255e-01  5.556834e-01  5.863577e-01  -2.414935e+00  -7.717053e-02  7.516019e-01  -1.648572e+00  -1.370593e+00  -6.871704e-01  -3.219008e-01  -1.122487e-01  -1.003928e+00  -2.091780e+00  -1.021612e+00  -1.004518e+00  -4.001785e-01  4.442374e-01  -1.848840e+00  -1.546926e-01  -4.024599e-02  2.141360e-01  -4.150243e-01  -7.136910e-01  -9.244516e-01  5.145257e-01  -1.807431e+00  -2.568782e-01  1.325880e+00  8.608227e-01  7.127077e-01  -3.257987e-01  -2.728257e-01  2.423586e+00  -1.976856e-01  7.622820e-02  3.081648e-01  4.583326e-01  1.423258e+00  6.301703e-01  -7.117947e-01  1.875979e+00  -5.052368e-01  1.507689e+00  -2.868855e-01  2.588331e-01  8.319755e-01  7.119600e-01  1.204747e+00  3.092487e-01  2.857698e-01  1.070877e+00  7.120973e-01  -1.677744e+00  -3.334211e-02  -3.035853e-01  -1.200727e+00  6.516426e-01  -1.584726e+00  -3.972160e-01  2.202021e-01  -9.715938e-01  7.763546e-01  -6.840379e-01  -1.572482e+00  2.015295e-01  -9.975950e-02  1.848852e-01  -1.469959e+00  -7.234512e-02  -4.381239e-02  -2.084830e-02  -3.908602e-01  -5.409999e-02  5.684566e-01  -1.902867e-01  -2.141074e-01  -2.239024e+00  -1.707226e+00  -5.875122e-01  -2.246958e-01  1.064361e-01  5.158129e-01  -6.497324e-02  -2.409632e+00  3.920989e-02  8.165619e-01  -1.681345e+00  1.519064e+00  -1.296897e+00  4.166230e-02  9.482571e-01  7.597087e-01  -1.682784e+00  1.900117e-01  2.104431e+00  8.993473e-02  -1.984922e-01  -1.689291e+00  -1.053842e+00  6.113104e-01  -7.992475e-01  -3.376294e-01  2.051481e+00  -6.636903e-01  -6.597574e-02  -3.549460e-01  5.388841e-01  -1.533545e+00  4.380099e-01  4.897657e-02  1.142830e-01  -5.581828e-01  -1.427426e+00  -9.143141e-01  -1.904981e-01  6.866541e-02  3.578281e-01  2.189784e+00  9.514506e-01  -3.276068e-01  5.449459e-01  4.541082e-01  7.044452e-01  -3.683843e-01  -5.714779e-01  -7.774959e-01  -7.560992e-01  1.392140e+00  2.858276e-01  2.594886e-01  4.562403e-01  6.405199e-01  -1.618136e+00  -4.185646e-01  -1.824436e-01  -8.111715e-02  -3.801858e-01  2.147556e+00  -2.035370e-01  9.402817e-02  -6.534906e-01  4.586551e-01  2.070529e+00  9.329476e-01  6.792925e-01  -1.861264e-01  -1.678932e-01  -1.855478e+00  -1.082656e+00  -4.423749e-02  -4.187786e-01  8.138694e-02  -2.015372e+00  -2.974462e-01  -3.549631e-01  -5.545644e-01  5.771331e-01  1.554580e+00  5.248266e-01  -3.749887e-01  4.486844e-01  4.092984e-02  -1.486642e+00  -3.308230e-02  5.446569e-01  3.189237e-01  -5.817335e-01  2.426985e+00  2.243937e-01  3.241547e-02  1.101849e-01  3.945455e-01  -1.727498e+00  7.332534e-01  -1.863845e-01  -4.061758e-01  -4.048742e-01  -2.317307e+00  4.577419e-01  -4.622813e-01  2.196126e-01  -4.006047e-01  2.462662e+00  -3.471015e-01  1.627453e-01  -4.968175e-02  4.236917e-01  -6.032372e-01  3.100815e+00  2.536089e-01  -6.650798e-01  2.772274e-01  5.161386e-01  5.964952e-01  2.829973e-01  -6.858985e-03  1.431772e+00  2.505711e+00  6.236112e-01  5.774417e-01  -2.072660e-01  1.122571e-01  1.594957e+00  2.867253e-02  6.002739e-02  1.361553e-01  4.502395e-01  2.036748e+00  9.202408e-01  2.316943e-01  5.051695e-01  -3.105330e-01  2.922417e+00  9.005542e-01  -1.604506e-01  1.160734e-01  3.140001e-01  -1.639638e+00  9.409862e-01  7.288075e-02  -5.887549e-01  1.270970e-01  -1.747456e+00  -5.448137e-01  3.208202e-01  -7.661709e-01  -3.301439e-03  -5.094215e-02  -2.355820e+00  7.962240e-02  7.914105e-01  -1.516810e+00  -1.238019e+00  -1.074176e+00  1.719338e-01  -7.512031e-01  7.377414e-01  2.201551e-01  3.954031e+00  5.760826e-01  -7.556423e-01  1.874592e-01  -2.693250e-01  8.978572e-01  2.227015e-01  -1.462806e+00  2.470897e-01  -1.974108e+00  -3.888240e-01  -3.284070e-01  4.900703e-01  -3.863267e-01  -4.504304e-01  -1.977264e+00  4.973349e-02  5.141968e-01  -1.288629e+00  2.964293e+00  -3.275800e-01  -6.846355e-01  -5.475669e-01  -4.345368e-01  -4.705911e-02  -3.155755e-01  1.122968e-01  1.132372e-01  1.849738e+00  -1.424307e+00  -6.557890e-01  -1.167217e+00  9.378123e-01  3.365290e-01  2.121265e+00  6.852779e-01  1.825303e-01  1.356329e-01  2.463493e-01  -1.704597e+00  -7.890436e-01  5.161082e-01  -3.058734e-01  -5.038047e-01  -1.723555e+00  -3.941424e-01  -1.752930e-01  -2.875499e-01  -8.203794e-01  8.608499e-01  4.290065e-01  3.018382e-01  8.417583e-01  -9.890125e-01  1.433433e+00  2.848514e-01  3.179169e-01  1.344587e-01  5.022595e-01  1.471213e+00  1.747591e-01  1.570807e-01  1.359674e-02  -6.615555e-01  7.011865e-02  2.952441e-01  -5.294950e-02  -1.702303e-01  -2.317448e+00  -1.904315e+00  -5.466981e-01  -3.396409e-01  -7.911480e-01  9.986982e-01  1.164706e+00  4.356522e-01  -5.758756e-01  1.153081e+00  -2.878198e-01  -8.742235e-01  1.613794e+00  -1.093586e-01  -5.923345e-01  2.009308e-01  1.667221e+00  2.724157e-01  -6.308405e-01  8.498105e-01  6.869532e-01  1.777808e+00  7.633929e-01  -1.357007e-01  6.953228e-01  -2.360210e-01  -1.741506e+00  -1.474048e-01  -1.246687e-01  6.473340e-02  -4.276077e-01  -2.548820e-01  -6.388571e-01  7.256687e-02  2.667805e-01  2.040886e+00  1.432889e+00  -6.143167e-01  -2.376073e-01  -4.206623e-01  4.321133e-01  -2.303351e+00  3.869942e-01  -2.775494e-01  4.582316e-02  -2.892535e-01  -1.793595e+00  4.768115e-01  2.916312e-01  4.959132e-01  -3.104544e-01  -9.070477e-01  -5.369577e-01  -8.855413e-01  -8.634881e-01  -1.307381e+00  7.875157e-01  5.858985e-01  -2.349644e-01  1.738892e+00  2.708279e-01  5.410001e-01  1.127326e+00  7.801444e-02  -2.239020e-01  1.037379e+00  1.918957e+00  -3.987548e-01  -5.146490e-01  -4.810840e-01  4.713919e-01  -1.414420e+00  7.111144e-01  -1.833322e-01  1.639071e-01  -9.863166e-01  1.958528e+00  -8.545810e-01  7.873414e-02  -2.338050e-01  4.845458e-01  9.276913e-01  -1.749886e+00  1.396285e-02  -5.367796e-01  7.063195e-01  -2.349421e+00  -7.483838e-01  -4.381797e-02  -1.118075e-01  -2.751933e-01  -2.129409e+00  -1.087617e+00  -4.747336e-01  -3.214162e-01  5.697496e-01  1.414379e+00  4.550825e-01  2.195639e-01  2.833891e-01  5.225776e-01  2.021397e+00  -7.335815e-01  6.922802e-02  -6.865597e-01  5.188015e-01  -6.081303e-01  4.618993e-01  1.766826e+00  4.158687e-01  -1.078573e+00  -1.309274e+00  -4.074175e-01  -7.522233e-01  4.922539e-01  2.714979e-01  1.306471e+00  7.498132e-01  -3.671353e-01  1.268290e+00  -5.487549e-01  2.812632e+00  -4.585338e-01  -7.253477e-01  -2.140039e-01  2.526283e-01  1.208599e+00  6.464097e-01  -5.601776e-02  3.651296e-03  1.091933e+00  -2.223943e+00  2.070521e-01  -2.522583e-01  -3.679157e-01  3.035262e-01  2.466079e+00  -1.268287e-01  -1.610487e+00  -9.518766e-02  -9.717743e-02  
      </Weights>
      <Biases Rows="128" Columns="1">
        -7.872295e-01  -7.703786e-02  6.988022e-01  6.976358e-01  -6.114333e-01  6.734509e-01  -5.527165e-01  -5.262176e-02  -3.127114e-01  -3.141646e-01  2.054026e-01  1.963859e+00  -9.805869e-02  -6.719360e-01  8.508014e-01  6.844040e-01  1.759186e-01  -2.694381e-01  -3.902978e-01  -7.265761e-01  -5.128778e-01  -3.064995e-01  -1.010643e+00  5.758988e-01  -9.312236e-01  7.272727e-01  -8.274867e-01  4.883716e-02  -7.414420e-01  6.061103e-01  1.913915e-01  -7.685033e-01  1.341057e-01  -2.627612e-03  6.769409e-01  -1.053844e-01  -6.569110e-01  -1.000102e+00  7.477821e-01  5.260407e-02  4.181508e-01  -7.883881e-02  8.159951e-01  -9.017790e-01  -1.260921e-01  1.022069e+00  3.062398e-01  -4.237426e-01  2.267638e-01  -1.057128e+00  -3.218451e-01  -5.366449e-01  6.838017e-01  -1.985997e+00  8.340583e-01  2.665120e-01  -1.806055e-02  1.539268e-01  -7.105101e-01  1.108762e-01  5.672886e-02  4.378051e-01  7.127056e-01  -1.285204e-01  -7.478224e-01  9.696671e-01  -2.824678e-01  4.833530e-01  -5.719714e-01  -6.744347e-01  -4.075297e-02  7.398708e-01  6.869650e-01  4.471119e-01  -6.864306e-01  6.154509e-01  9.133841e-01  5.235192e-01  6.060190e-01  -7.855698e-01  6.601540e-01  6.343297e-01  -1.243868e+00  5.895870e-01  3.690776e-01  7.584401e-01  1.462966e+00  -1.464836e+00  6.203867e-01  5.322356e-01  6.753581e-01  1.540585e+00  7.688078e-01  5.829746e-01  -5.780259e-01  -4.690825e-01  2.666246e-02  -5.444645e-01  -5.026940e-01  -1.974031e+00  -2.954727e-01  1.627933e-01  -1.386019e+00  1.261541e+00  6.674464e-01  9.100180e-01  1.886447e+00  3.784392e-02  -6.675032e-01  -1.578509e-01  1.748744e-02  1.276095e+00  -4.398009e-01  -2.600428e-01  -5.045161e-01  3.654113e-01  1.000561e+00  -5.599456e-01  -3.028643e-01  -2.540848e-01  1.070236e-01  6.377697e-01  7.027236e-01  -1.842739e-01  4.260873e-01  4.329218e-01  -9.825867e-01  3.431647e-01  
      </Biases>
    </DenseLayer>
    <DenseLayer Width="128" ActivationFunction="3">
      <Weights Rows="128" Columns="128">
        1.016793e+00  -2.617835e-01  3.256454e-01  -3.897232e-01  3.125835e-01  2.070505e-01  -3.992323e-01  8.349703e-02  9.864952e-02  -1.590025e-01  -4.464754e-01  -3.695086e-01  5.010289e-02  3.085892e-01  -1.787809e+00  -1.971047e-01  1.732519e-01  -4.839152e-01  6.015745e-02  1.877340e-01  8.164569e-01  3.287187e-02  -1.773286e-01  -6.693098e-01  2.660986e-01  -4.433329e-01  2.405809e-01  -6.807795e-01  -1.949640e-01  9.572452e-02  2.353428e-01  1.821030e+00  2.335815e-01  7.144960e-02  -1.095334e+00  5.537500e-01  2.901838e-01  -1.986784e-01  -1.417805e-01  6.128397e-03  -3.622088e-01  -3.186169e-01  -1.249086e+00  -3.277731e-01  2.169687e-01  -1.005192e-01  8.761107e-01  1.005852e+00  2.130406e-01  -3.216136e-01  -7.438068e-01  -3.208794e-01  -1.857148e+00  4.537657e-01  -1.821555e+00  1.079051e-01  9.620677e-01  -6.205239e-01  -3.542617e-02  2.518975e-01  -9.673381e-01  -4.864994e-01  -2.282357e-01  5.208661e-01  1.086498e+00  -1.795342e+00  7.285194e-02  1.952904e-01  -4.777443e-01  2.021562e-01  4.368261e-01  -1.230317e+00  5.175048e-02  -5.714678e-01  2.360450e-01  -1.337413e-03  -1.940431e-01  1.724458e-01  -1.324864e-01  1.241081e+00  -2.429280e-01  2.319545e-01  -2.082617e-02  -1.533357e+00  3.578897e-01  -1.019998e+00  -1.961880e-01  1.592509e-01  -5.412028e-01  -3.308581e-01  -7.800400e-01  -2.744534e-01  -2.189141e-01  -4.261570e-01  -1.226872e-01  3.022206e-01  4.207126e-01  7.165048e-01  4.908309e-01  3.281356e-01  4.491922e-01  6.481583e-01  5.652269e-01  -2.146197e-01  -8.120959e-02  -2.074398e+00  -3.430951e-01  4.841028e-01  5.622892e-01  -1.839182e-01  5.582619e-02  1.052079e-01  3.393598e-01  4.406054e-01  2.186426e-01  -2.150653e-01  4.536250e-02  -2.390184e-02  -2.942245e-01  3.514976e-01  3.675461e-02  -1.085337e+00  -2.152177e-01  7.121864e-01  2.515091e-02  7.827093e-02  9.154782e-02  1.756781e-01  -5.118004e-02  1.087457e+00  3.364723e-01  -6.438615e-01  -1.976499e-01  3.817369e-02  2.094995e-01  -5.061842e-01  2.769995e-01  -4.869016e-01  3.036500e-01  -7.849303e-01  3.686333e-01  7.256842e-01  3.294555e-01  -3.316214e-01  -6.855351e-01  6.090695e-01  -6.440131e-01  3.410497e-02  -9.779878e-01  9.739791e-02  -2.457763e-01  -1.977632e-01  1.600397e-01  -9.033623e-01  -4.036838e-01  1.211122e+00  2.804040e-01  4.243079e-02  -1.458604e-01  -1.612554e-01  -4.238074e-01  1.164558e-01  3.175803e-01  4.731933e-01  1.313780e+00  1.843586e-01  -2.409165e-01  -5.182331e-01  -1.144782e-01  5.352431e-01  -1.351017e-02  -6.833721e-01  -7.230692e-01  -3.540751e-01  4.791625e-01  -3.648223e-01  2.515779e-02  5.754673e-02  3.450034e-02  -4.695103e-02  1.377448e-01  3.991300e-01  2.408601e-01  -7.954104e-01  3.275453e-01  -3.541523e-01  -1.486352e-01  -1.011738e+00  1.938701e-01  1.232857e-01  -1.160100e-01  -6.025868e-01  1.879514e-01  -2.863191e-01  -1.254757e+00  -1.099414e-01  6.281453e-02  5.215367e-01  2.914163e-01  4.096999e-01  -6.360902e-01  1.050350e-01  1.182253e+00  -1.309729e+00  5.162843e-01  1.891277e-01  -1.997279e-01  -3.690542e-01  -1.553173e-01  4.587085e-01  5.942973e-01  1.281809e-01  -3.219965e-01  2.335130e-01  1.166709e-01  -4.861549e-01  7.276304e-01  -3.245565e-01  -5.269727e-01  -1.124642e-01  1.519404e-01  -2.662317e-01  -3.945846e-01  -6.532437e-04  -1.464987e-01  -4.939099e-01  -4.035148e-01  3.634400e-01  1.702587e-01  5.712363e-02  3.285954e-01  1.414798e-01  -6.534623e-02  3.790704e-01  -2.764676e-01  -1.609602e-01  1.208093e+00  7.110541e-01  1.512022e-01  1.439968e-01  3.425413e-01  -1.929452e-01  1.296453e-01  -1.227863e+00  -6.565428e-01  3.021483e-01  3.061778e-01  -1.813098e-01  -9.517317e-01  4.819769e-01  4.839116e-01  -2.510660e-02  -1.416904e+00  3.080766e-01  6.336728e-01  -2.435776e-01  -1.388158e+00  -5.019742e-02  -3.271497e-01  -1.218299e-01  -1.428539e-01  -3.359745e-01  -7.780191e-02  -1.239752e+00  -1.189702e+00  2.935925e-01  1.300242e-01  -1.353063e+00  2.113502e-01  -2.627350e-01  9.622962e-01  -2.164944e-01  2.439453e-01  -1.428895e-01  6.055698e-01  -8.579324e-01  -7.070407e-01  1.180487e-01  1.716664e-01  -8.361307e-01  -1.806028e-02  2.851433e-01  2.428880e-02  8.935602e-01  4.862983e-01  -3.009832e-01  3.244201e-01  -1.305597e-01  -8.552004e-01  3.171444e-02  -3.788200e-01  6.965472e-02  6.772858e-03  -3.683597e-01  1.617917e-01  7.657832e-01  1.296790e+00  -1.147372e-01  3.778984e-01  1.306794e-01  -6.889109e-02  1.115287e-01  -1.577992e-01  -1.028096e+00  -3.777039e-01  5.320994e-01  8.768836e-02  -9.243581e-02  7.809302e-01  1.173750e+00  -2.208922e-01  6.669883e-01  -8.673202e-01  -1.045937e-01  -8.003791e-02  -8.696184e-01  1.347647e+00  -3.740074e-02  8.419959e-02  3.328665e-01  -1.190109e+00  7.802184e-01  -1.242765e+00  1.546620e-03  3.663892e-02  2.648189e-03  1.098630e-01  1.593742e-01  -8.963834e-02  1.320814e+00  9.964827e-02  -8.283838e-02  5.061087e-01  -5.480787e-01  -2.170616e-01  -8.836367e-01  -9.323508e-03  -1.557959e-01  5.867698e-02  3.317413e-01  4.819218e-01  -3.079155e-01  -2.499176e-01  -2.116807e-02  6.870686e-01  7.954428e-01  -3.085398e-01  -1.860732e-01  6.088665e-01  7.429787e-02  7.524231e-02  5.362598e-01  1.154710e-01  -1.183789e+00  -6.309636e-02  6.228160e-01  -1.576613e-01  1.371087e-01  1.044298e-02  -2.108155e-02  1.404337e-01  5.971899e-01  -6.589912e-01  -5.003229e-01  3.117011e-01  2.031083e-01  3.520725e-01  7.421301e-02  -7.544556e-01  -3.374152e-01  2.021943e+00  -1.257228e+00  6.758875e-02  1.479664e-01  -9.105014e-02  -6.696109e-01  -1.012315e+00  2.484569e-01  6.791195e-02  -3.101518e-02  -6.383804e-02  -2.759686e-01  9.743138e-02  -3.084038e-01  6.228857e-01  -5.271889e-01  -2.384868e-01  8.528601e-02  2.116845e-01  -4.748667e-01  -1.495843e-01  6.788276e-01  9.451045e-02  1.316724e+00  3.929329e-01  7.965501e-02  -4.897276e-01  5.647640e-01  -5.760347e-01  -2.653741e-01  4.859887e-02  -7.226496e-01  -3.903014e-01  1.720139e+00  2.587167e-03  2.554685e-01  3.171431e-01  -4.614151e-01  9.342000e-01  8.524314e-02  -3.633726e-01  -1.133303e+00  3.187560e-01  7.945719e-01  -2.611228e-01  4.657027e-01  4.850751e-01  2.729473e-01  -2.432115e-01  6.432418e-01  6.222164e-01  1.559286e-01  1.025815e-01  -1.459850e-01  -7.322215e-01  5.599913e-01  -1.720089e+00  4.278127e-01  5.801265e-02  2.671637e-01  -2.398024e-01  -7.040116e-01  1.470216e-01  4.955886e-01  5.962909e-01  2.093370e-01  -5.740824e-01  -3.780180e-02  -3.397196e-01  -3.761816e-01  5.597929e-02  1.510496e-01  2.456906e-01  1.304846e+00  -1.624739e+00  -7.759474e-03  1.534323e-02  6.839772e-01  -1.466813e-02  -1.372733e+00  1.951340e+00  -3.575731e-02  -6.755072e-02  1.408980e-01  -3.870891e-02  -1.627557e+00  -2.171073e-02  -1.542795e-02  -2.679744e-01  6.347023e-02  -8.584943e-02  5.432711e-01  2.211933e-01  3.953201e-01  -1.757708e-01  -1.300038e-01  -1.438289e-01  -3.016578e-01  -7.516502e-01  -1.761111e-01  2.946175e-01  5.328624e-01  -1.351318e+00  -5.607021e-01  6.119359e-01  2.464045e-01  -1.674833e-01  -1.779183e-01  -1.351239e-02  4.816862e-01  -7.186396e-01  8.240361e-01  2.102169e-01  4.701259e-01  4.807867e-01  -3.618317e-01  5.624940e-01  -1.244679e-01  -1.441274e-02  -4.921834e-01  3.516896e-01  7.013136e-01  -5.545869e-01  -7.729554e-01  1.828909e-01  -2.353256e-01  1.232884e+00  1.542110e+00  -7.233891e-01  7.756921e-01  -1.554880e-01  2.245337e-01  4.765921e-02  4.044409e-01  1.952632e+00  -4.909102e-01  -3.599474e-01  1.574510e-01  9.287550e-01  2.706665e-01  1.402813e-01  3.563950e-01  -7.949453e-01  5.649260e-01  -3.244084e-01  -6.917221e-01  -3.930184e-01  5.289978e-02  4.288844e-01  -6.796728e-01  -8.359160e-01  9.614393e-01  9.212651e-01  -3.511640e-01  1.628997e-01  -7.945002e-01  3.503694e-01  -8.095390e-01  -1.209036e-01  1.754855e-01  5.557111e-01  -1.621173e+00  -8.084399e-01  2.369324e-01  -6.594753e-02  -6.239624e-01  2.299857e-02  -1.294586e-01  2.840568e-01  4.280416e-01  -3.267513e-01  -5.147538e-01  4.462825e-02  3.361062e-01  2.486734e-01  2.939256e-01  1.745102e-01  -4.849271e-01  -5.064698e-01  3.671018e-02  1.459621e-01  5.254657e-01  7.549800e-01  7.431543e-01  -3.143926e-03  -3.965839e-01  -3.141210e-01  -7.007419e-02  6.958348e-01  -4.549287e-01  -1.460412e-01  1.431677e-01  9.544680e-02  1.529513e-01  3.607572e-01  -2.773402e-01  5.568350e-01  9.546680e-01  5.154967e-01  1.073530e-01  3.272368e-01  -4.049727e-01  -1.346727e-01  1.007529e+00  -8.565961e-02  -2.311944e-01  -5.416012e-01  9.202961e-01  -8.065676e-01  4.044513e-01  2.547075e-01  3.898347e-01  4.983451e-02  7.560272e-01  1.412824e-01  6.298079e-02  1.129616e-01  -4.545475e-01  -1.724363e-01  -3.105023e-01  -3.965095e-02  -2.001536e-01  -3.143210e-01  -4.350418e-01  -5.857888e-01  -1.412822e-01  1.043952e+00  3.651424e-01  -6.659971e-01  -3.197188e-01  1.511034e+00  1.415863e+00  -4.521950e-01  1.762575e-01  1.032940e+00  -2.475783e-02  -3.573898e-01  -9.476425e-02  8.680826e-02  -1.235283e+00  -4.348017e-01  -1.245781e-02  1.627183e-01  7.788320e-01  1.000296e-01  1.191798e-01  -1.197346e-01  3.776420e-01  7.694351e-01  -5.957845e-02  3.931469e-01  7.195123e-02  4.768422e-01  1.597116e-01  -3.778002e-01  -1.294190e-01  2.477251e-02  -3.282802e-01  -3.414291e-02  -1.612958e-01  7.755486e-01  -4.125600e-01  -4.139023e-01  6.045217e-02  9.728107e-01  -8.579390e-02  3.549939e-01  -4.311100e-02  1.641143e-01  -1.892837e-01  -8.397039e-01  1.430107e-01  -1.953007e-01  6.346502e-01  -1.399912e-01  -1.676986e-01  -7.657258e-02  -6.893414e-01  -1.056560e+00  3.894734e-01  3.230065e-02  -9.496570e-01  6.831471e-02  -4.805736e-01  4.109600e-01  -3.351554e-01  5.929917e-03  2.390729e-01  2.092230e-01  -8.065370e-01  -4.757465e-01  -3.192312e-01  2.375306e-01  -1.951364e-01  -6.740420e-02  1.512424e-01  6.894469e-01  -9.092261e-02  -2.474954e-01  -7.862808e-01  -1.979519e-01  -1.897824e-01  -7.909551e-01  -2.226578e-01  -3.752109e-03  1.339143e-01  -4.291127e-01  -3.412744e-01  -5.762467e-01  6.521199e-01  1.137828e+00  1.638062e-01  2.941874e-01  1.704753e-01  -5.888526e-01  2.422625e-01  3.718706e-01  -3.573664e-01  -4.030376e-01  1.553618e-01  -2.035347e-01  4.461768e-01  6.646835e-01  6.115208e-01  -1.850149e-02  5.260425e-01  -2.623651e-01  -7.012681e-01  3.125740e-01  -4.939191e-01  5.915321e-01  1.270507e-01  7.367861e-03  6.290292e-01  -8.990436e-01  7.182220e-01  -4.769302e-01  -1.460694e-02  2.056094e-01  4.593288e-01  4.816015e-01  3.521155e-01  -1.975193e-01  1.097051e+00  8.074551e-02  -3.359807e-02  -1.292069e-01  -5.381423e-02  -1.538369e-01  -4.511949e-01  -2.339014e-02  5.249564e-01  -3.517815e-01  4.342846e-01  2.122309e-01  2.949339e-01  4.176597e-02  4.252750e-02  8.619968e-01  2.385987e+00  5.718653e-01  7.587770e-02  3.706311e-01  -1.577403e-01  -2.992164e-01  -1.081434e-01  4.929827e-02  -1.182848e+00  -3.906288e-01  4.789354e-01  7.907930e-02  -3.464109e-01  -4.012035e-01  -1.716000e-01  3.191993e-01  3.273076e-01  -2.515469e-01  -4.283838e-02  1.153739e-01  -1.057714e-01  5.929420e-01  2.879145e-02  -6.334324e-01  4.404732e-01  2.325195e-01  -1.699515e-01  6.492287e-01  -6.206806e-01  1.395480e-01  -5.297084e-01  -3.274933e-01  -2.259797e-01  1.830626e-01  -2.742495e-01  -2.184035e-02  -3.769801e-01  6.888425e-02  3.947316e-01  1.181360e+00  -2.529299e-02  3.924539e-01  -1.217231e-02  3.599586e-01  -6.713745e-02  -7.843688e-01  7.261000e-02  -2.104833e-01  -2.628502e-01  -4.901604e-01  -1.726240e-02  2.754663e-01  -3.637308e-02  -9.655532e-01  1.315801e-02  2.834151e-01  -4.752337e-01  1.351935e-01  6.973413e-01  5.511222e-01  1.145316e-01  4.558860e-01  2.544001e-01  -2.270949e-01  2.416304e-01  -2.469436e-01  -5.030658e-01  5.822868e-02  4.278700e-01  2.389547e-01  1.138409e+00  -2.014636e-01  3.498850e-01  -6.018832e-01  -4.350223e-01  -9.975738e-02  -2.585808e-01  -3.341625e-01  -4.547206e-01  -3.432888e-01  2.214679e-01  -1.498305e+00  6.433945e-02  1.094968e+00  -2.780572e-01  -6.273046e-01  1.136072e-02  -2.688305e-02  -2.514575e-01  -2.697682e-01  1.913301e-01  -8.143808e-01  -1.444862e-02  -9.341923e-01  -4.066463e-01  -2.420035e-01  -4.523341e-01  7.643987e-02  1.659826e-01  -4.549572e-01  -4.572304e-01  4.286344e-01  6.177345e-01  7.580944e-01  -1.485252e+00  1.123523e+00  3.905496e-01  -1.232700e-01  -5.046408e-01  2.014844e-01  -1.327581e+00  -1.321907e-01  -2.091697e-01  3.124773e-01  -2.651258e-01  3.017827e-01  2.281163e-01  2.959165e-01  8.347176e-01  2.268446e-01  -2.267040e-01  3.027782e-01  -2.955380e-01  -3.161106e-01  -1.435657e-01  -1.862650e-01  -3.125549e-01  -1.264952e+00  -1.462566e-01  3.424373e-01  -3.578654e-01  -8.081883e-01  -3.221211e-01  2.135866e-01  -4.608485e-02  -8.006351e-02  5.741646e-01  5.343993e-01  3.294287e-02  2.315746e-01  2.578785e-01  1.732279e-01  1.190924e-01  1.940467e-01  -1.648805e+00  2.828581e-01  3.537155e-01  5.550920e-01  -2.144513e-01  3.612463e-01  -2.015233e-01  5.401689e-01  -5.575703e-03  -4.382148e-02  -1.443463e-01  4.056780e-01  2.865840e-01  3.498286e-01  3.018267e-01  4.012980e-01  -1.016031e+00  -6.620151e-01  -4.483039e-01  -1.063085e-01  1.246680e-01  3.181004e-01  -1.506853e-01  2.286567e-01  3.126758e-01  -7.107586e-01  -4.125771e-01  5.462643e-01  -5.203614e-01  3.881548e-01  3.290220e-01  1.228924e-01  1.375111e+00  1.296184e+00  1.896877e-01  1.282783e-02  7.638022e-01  1.979148e-01  -3.451388e-01  -5.242890e-01  1.490809e-01  -2.721065e-01  9.723841e-02  1.136917e-01  1.460966e+00  4.145261e-02  2.821463e-01  2.185020e+00  -2.399449e-01  6.199840e-02  -3.778199e-01  3.095542e-01  -2.408296e-01  -2.110732e+00  -3.933225e-01  -3.282250e-01  6.169184e-01  4.962749e-01  -5.923486e-01  4.092348e-02  4.258271e-01  -2.523383e-02  -2.538239e-01  -4.195513e-01  8.297791e-01  -1.691414e-01  7.926270e-01  -2.945171e-02  4.722273e-02  -7.627192e-01  -1.477177e-01  2.628117e-01  1.485003e+00  2.319881e+00  7.680045e-01  2.445561e-01  4.674584e-01  3.502137e-01  -4.855900e-01  5.463378e-02  -2.344168e-01  1.960846e-01  4.648817e-01  -1.646525e-01  8.386612e-01  -3.638197e-01  5.185096e-01  3.360681e-01  3.603602e-01  3.330468e-01  -4.659406e-01  2.506734e-01  9.804150e-01  -7.358046e-01  1.429665e-02  1.649204e-01  6.081088e-01  -3.983892e-03  -4.073048e-01  -1.079494e-01  -1.431767e-02  -5.640470e-01  2.152867e-01  -5.533306e-01  -4.433995e-01  4.773393e-01  3.683234e-01  -2.707338e-01  5.693048e-01  1.770996e-01  1.314869e+00  -8.393160e-02  -6.806728e-01  -9.037747e-01  2.392341e-01  6.526209e-01  -2.352078e-01  -3.759105e-01  -4.897050e-01  -1.353197e+00  3.918094e-01  -5.638661e-01  -2.949737e-01  1.622664e+00  -9.995791e-01  1.018557e-01  -3.433931e-01  -1.158735e+00  -1.715443e-01  -1.697359e-01  4.217514e-01  4.333784e-01  -4.658376e-01  -8.301114e-03  -5.233747e-01  4.808299e-01  4.665540e-01  -1.370284e-01  1.570166e-01  6.638566e-01  5.068001e-01  1.271304e+00  3.219629e-01  6.634066e-01  -9.374384e-02  2.198481e-01  -1.610178e+00  -5.941678e-01  -2.766232e-02  4.327203e-01  -1.050774e-01  -7.965583e-01  6.799473e-01  2.630451e-01  -5.623377e-01  2.592577e-01  5.251582e-02  1.619723e-01  -4.296297e-01  3.983732e-01  -2.932829e-01  -1.727922e-01  -4.055810e-01  8.079646e-01  5.944933e-01  1.417777e-01  2.271455e-01  -4.841110e-01  2.387112e-01  -1.743347e-02  -1.050469e+00  7.264011e-02  -1.794956e-01  -3.953397e-02  -9.546901e-02  -2.506348e-01  -3.845546e-01  -8.438511e-01  5.079163e-01  2.137043e-01  -9.242723e-03  2.475787e-01  -2.354139e-01  -1.736032e-01  -3.404087e-02  1.573249e-01  -2.058454e-01  1.581930e-01  1.374881e-01  -9.837281e-02  -1.119173e-01  4.474040e-01  -4.293735e-02  9.872326e-01  -4.498511e-01  4.198386e-02  -2.987545e-01  5.028728e-01  1.493755e-01  -2.601937e-02  -4.646146e-01  -2.600924e-01  4.234577e-01  3.046333e-01  -2.337236e-02  6.050608e-02  -2.030199e-01  2.480423e-01  -5.410516e-01  -3.797445e-03  -7.534941e-01  2.987708e-01  1.069050e-01  1.388200e-01  -5.128161e-01  2.118999e-01  3.022684e-01  -1.438187e+00  -2.443521e-01  1.173379e-01  2.545396e-01  -4.828602e-01  4.182781e-02  -2.218605e-01  4.897082e-03  6.450284e-01  -6.294973e-01  -1.512187e-01  -2.447977e-03  -8.195068e-02  4.200213e-02  -4.665145e-01  -4.201961e-01  -1.995634e-01  1.237516e-01  -9.057341e-02  3.718554e-01  -2.554196e-01  -5.118184e-01  1.672712e+00  -6.226335e-03  -1.233785e+00  -2.508162e-01  7.219782e-01  -2.097363e-01  2.855666e-01  -2.322195e-01  2.023536e-01  1.420237e-01  -6.532928e-01  -3.810374e-01  4.573025e-02  2.663766e-01  1.570549e-01  -9.875733e-02  1.086271e-01  2.249486e-01  -1.810333e-02  -3.047790e-01  5.849544e-01  1.257881e+00  -1.166090e-01  9.381419e-01  2.409399e-01  -8.281153e-01  1.797708e-01  -2.263175e-01  -6.220564e-01  2.069226e-01  3.622961e-01  -2.202919e-01  -1.240819e+00  3.978028e-01  6.326922e-01  -4.400147e-02  -1.710811e+00  2.106265e-01  2.707341e-02  -8.271570e-01  -1.618449e-01  -3.714981e-01  -1.131830e-01  -2.916323e-01  -5.396665e-02  -4.856088e-01  1.654983e-01  -2.005296e-01  -6.194527e-01  6.045700e-01  2.382735e-01  -2.534301e+00  -4.827068e-01  -3.594339e-02  1.932628e-02  -1.105749e-01  1.132512e-02  -4.255246e-01  8.006303e-01  9.795802e-02  -1.120447e-01  2.017323e-01  3.385378e-01  -1.333065e-01  -8.450759e-02  -3.279792e-01  3.873361e-01  8.742335e-02  3.746886e-01  -7.643870e-01  8.208127e-02  -3.154514e-01  5.869948e-02  -3.255463e-01  -2.439059e-01  4.089932e-02  -5.163324e-01  -5.457406e-02  -9.111751e-01  8.976090e-01  -4.886631e-01  4.064744e-01  -9.830637e-01  2.534088e-01  3.303949e-01  -1.401622e-01  -7.069690e-02  1.130649e-01  -4.407711e-01  -1.700886e-01  2.326652e-01  4.573173e-03  -5.200120e-02  2.391572e+00  -1.086797e+00  3.689845e-01  -1.434895e-01  1.453044e-01  1.057588e-01  -2.390672e-01  6.145074e-01  -5.056012e-01  -1.823091e-01  9.258594e-02  2.293467e-01  -1.281419e-01  -1.529100e-01  4.244830e-01  7.419180e-02  1.071117e-02  1.359936e-01  1.833243e-01  -7.064808e-01  -1.042579e-01  6.117984e-02  -4.453225e-02  1.423022e-01  -4.401664e-01  2.236220e-02  2.645385e-01  -6.091595e-01  -5.461163e-02  2.192883e-01  -6.868841e-01  7.011719e-01  -5.725137e-01  5.263689e-02  2.370250e-02  4.773934e-02  -6.265336e-02  -2.061272e-02  -1.776184e+00  -8.951413e-01  -3.021120e-01  -4.321086e-03  5.003720e-01  2.859236e-01  1.730558e-03  6.804508e-01  3.035411e+00  -1.334545e-01  9.476316e-02  2.228071e-01  -4.165381e-01  4.208447e-01  -2.309765e-01  -2.036146e+00  6.628811e-02  5.457860e-01  8.498060e-02  8.889871e-02  3.496613e-02  -6.145627e-01  4.736946e-01  3.837464e-01  -4.459968e-01  -6.932754e-02  -2.963559e-01  4.316435e-02  -2.234916e-01  -8.876121e-02  -1.604830e-02  -5.251430e-01  -5.229075e-03  -6.103700e-02  -5.645988e-01  2.564514e-01  -1.107886e-01  3.333060e-01  -1.242172e+00  1.728181e-01  1.590603e-01  -2.813641e-01  -2.093639e-01  -2.061728e-02  6.102374e-01  2.962597e-01  -1.495562e-01  -8.748169e-01  7.558230e-01  -8.999081e-01  5.895916e-01  -4.465844e-01  -5.153634e-01  6.297778e-02  -1.678746e-01  -4.996674e-01  7.247112e-01  1.132313e+00  5.534329e-02  3.219014e-02  1.219764e-01  -3.495409e-01  2.722861e-01  -2.203059e-01  -5.653013e-01  -1.948453e-01  9.549939e-02  -1.720669e-01  2.446347e-01  2.314493e-01  -1.765232e+00  -2.689856e-01  1.174774e+00  5.684645e-01  -5.200741e-01  1.416652e-01  -2.834293e-01  -4.894039e-01  6.803036e-01  -4.856982e-01  -5.269020e-01  4.028593e-02  1.359703e-01  -1.537755e-01  2.107733e-01  5.172936e-01  3.657463e-01  -3.328360e-01  -2.378113e-01  -6.337729e-01  -5.387238e-01  -4.267021e-01  -1.884016e-01  2.480968e-02  -5.913812e-01  -8.407698e-01  3.907537e-01  -5.755080e-01  -2.544137e-01  2.223439e-02  -3.857619e-01  1.727397e-01  -4.702391e-01  8.548535e-01  2.784542e-01  -7.172029e-02  2.611744e-02  6.066831e-01  -3.709544e-01  4.063371e-01  -3.564046e-01  -6.178369e-02  -1.253783e-02  2.395971e-01  -8.284950e-02  -4.945174e-01  2.694882e-01  -1.093211e-01  3.538107e-01  4.465939e-01  -6.987038e-01  -6.513042e-01  1.280525e-01  -3.747340e-02  -4.537780e-02  -4.205238e-01  -6.236980e-01  -3.668348e-01  -1.456207e-01  6.185678e-01  -3.327731e-01  -4.285525e-01  -2.539246e-01  -1.696637e-02  5.533635e-01  2.718588e-02  -3.170172e-01  4.255406e-01  5.785831e-01  -3.897933e-01  9.900691e-02  2.476372e-01  -3.861830e-01  6.667703e-01  6.781235e-01  -3.284621e-01  -7.191027e-01  -7.243593e-02  5.326159e-01  6.722958e-02  9.620591e-01  -3.919281e-01  -3.325184e-02  4.149103e-01  9.579471e-02  -5.190042e-02  3.715747e-01  3.074358e-01  -1.097174e+00  1.168934e-01  6.903562e-01  1.085356e+00  -1.359294e-02  7.138293e-01  1.321993e+00  -1.014408e+00  5.793872e-01  1.269960e-02  -5.175772e-01  3.678000e-01  -9.106478e-02  2.148953e-01  -4.373346e-02  -1.946910e-01  4.460976e-01  6.919763e-01  6.180989e-02  3.225487e-01  3.098186e-01  1.075527e-01  -4.419184e-01  -3.324248e-01  4.020944e-01  -3.363844e-01  -7.516656e-01  -7.643159e-01  3.466846e-01  -1.208664e-01  -5.190710e-01  2.825233e-01  -4.814274e-01  8.190717e-01  4.455710e-01  8.350574e-02  -5.623374e-01  -3.745604e-02  -1.939118e-01  -7.253917e-01  6.331723e-02  4.277114e-01  7.038124e-01  6.945449e-01  -1.527576e-01  -5.229114e-01  -4.699859e-01  1.526971e-01  6.628101e-01  1.030234e+00  -1.604899e-01  -5.174633e-01  -2.981834e-01  -4.257963e-01  -3.874433e-01  -1.130062e+00  3.651631e-01  2.452544e-01  3.376188e-01  1.521119e-01  -6.403209e-02  5.357104e-01  -3.332804e-01  -3.272009e-01  -5.668622e-01  -2.097864e-01  -7.317340e-01  6.547791e-01  3.410082e-01  1.582887e-03  7.791777e-02  -6.473258e-01  2.157444e-01  -3.785639e-01  -2.922890e-01  6.643134e-01  1.015235e+00  -8.704235e-01  5.187528e-01  3.381944e-02  3.657575e-01  3.646491e-01  -1.721725e-01  1.690799e-02  2.740206e-01  -2.955788e-01  -2.211605e-01  -3.890395e-01  1.303678e-01  1.324317e-03  -5.535514e-02  -2.137941e-01  2.629772e-01  2.308567e-01  9.232605e-02  9.317072e-01  -2.033038e-01  -5.261556e-01  1.164543e-01  1.024505e+00  -3.172854e-01  3.539632e-02  5.581177e-01  -4.914243e-02  -8.588181e-01  -4.652208e-01  1.633491e-02  2.731821e-01  -2.058774e-01  4.635933e-01  2.378245e-01  -3.393811e-01  1.004926e+00  -1.061803e-02  1.425535e-01  3.974872e-01  -1.274398e-01  4.555379e-01  3.273536e-01  3.556636e-01  -8.477572e-01  1.594487e-01  -7.002963e-01  -2.407690e-01  4.026240e-02  7.872212e-01  -8.865713e-01  -1.466392e-02  -1.427702e-01  5.588346e-01  -4.835620e-01  -3.513957e-01  3.398257e-02  -1.076824e-01  1.637470e-01  6.896918e-01  -1.124902e+00  4.849199e-01  -5.723725e-02  -3.548105e-01  1.563462e-01  -5.873283e-01  3.731258e-01  3.789003e-02  -7.079161e-01  -1.262039e+00  -1.759143e-01  -1.113547e+00  6.489476e-01  -2.257899e-01  2.198293e-01  3.454368e-01  -6.641783e-01  5.658879e-02  1.552392e-01  6.961462e-02  -3.152608e-01  -1.493314e-01  -4.646408e-02  7.518914e-02  2.345272e-01  7.315230e-02  -4.132237e-01  -4.937385e-01  5.619433e-01  -5.564027e-01  -8.169098e-01  2.183813e-02  -4.668832e-01  -2.882753e-01  4.365308e-01  3.819116e-01  -6.404223e-01  1.917141e-01  -5.416590e-01  1.115643e-01  -2.597395e-01  -1.940968e-01  -1.908720e-01  5.633535e-01  -5.512187e-02  -4.158243e-01  -1.508284e-01  -2.115911e-01  7.166174e-02  1.244623e-01  -6.142262e-01  -7.113373e-01  3.254969e-01  -8.036629e-01  -6.149580e-01  -1.167762e-01  -2.053653e-01  -7.700083e-01  -5.278093e-02  -1.143969e-01  -1.003788e+00  1.231064e-01  1.506163e-01  -2.010986e-01  -5.872478e-01  3.462666e-01  9.260138e-01  -6.000809e-01  -1.233156e-01  5.290174e-01  -7.728592e-02  1.750357e-01  2.580025e-01  -6.376719e-01  2.544883e-01  4.219061e-01  2.312391e-01  6.245748e-01  1.311901e-02  -1.439768e-01  6.477849e-01  -1.167354e-01  8.452251e-02  -7.458749e-01  -4.490241e-01  4.559926e-02  3.499327e-01  -6.562597e-01  -5.018610e-02  6.616035e-01  -1.997136e-01  6.511843e-03  3.238042e-01  -5.781385e-01  -1.338558e-01  1.500275e-01  1.265490e-01  1.174997e+00  1.048831e-01  -3.679895e-01  5.893447e-01  2.579041e-01  3.097931e-02  5.570399e-01  -2.155867e-01  -4.162651e-01  3.787154e-02  -9.562868e-02  -3.399927e-01  -1.327553e-01  1.092290e-01  3.421552e-01  3.443976e-01  -2.069517e-01  5.575896e-01  4.816927e-01  -8.760987e-01  -9.156727e-01  3.760512e-01  -3.561621e-01  8.015056e-02  1.258783e-01  -2.994930e-01  8.819473e-02  -4.030533e-01  7.682408e-02  7.607001e-01  2.859850e-01  -2.788503e-01  2.318036e-01  -4.981573e-01  -5.136867e-01  6.351744e-01  -8.042634e-01  -1.545410e-01  4.323039e-01  -1.388616e+00  -3.987611e-01  -9.635300e-01  -1.190201e-01  -1.077222e-01  -1.661373e-02  1.247747e+00  2.484574e-01  -5.138007e-01  3.904296e-01  -3.470358e-01  -5.223477e-02  -1.540721e+00  -8.678467e-03  2.338886e-01  -1.654613e+00  2.150593e-01  -2.424677e-01  3.318984e-01  -7.901074e-01  2.496143e-01  3.975742e-01  -5.179032e-02  -3.474554e-01  1.094572e-01  -1.775468e-01  9.544438e-02  2.706454e-01  -1.450806e-01  -7.209808e-02  7.469735e-01  6.829541e-02  -1.370170e+00  -1.599910e-01  2.798640e-01  4.533265e-01  -1.629333e-01  5.566420e-01  -3.788820e-02  -1.605443e-02  -1.113106e+00  -9.013636e-01  -4.382498e-01  4.500797e-01  3.970537e-01  -6.770306e-01  6.528796e-02  -1.069225e-01  -3.711754e-02  1.901895e-01  -2.575012e-01  3.320373e-01  -5.848283e-01  -4.635479e-01  3.226779e-02  4.254474e-01  -1.311618e-02  8.601173e-02  5.713075e-01  -7.340547e-01  -1.675740e+00  6.600931e-02  -1.831841e-01  -2.520718e-01  -3.509356e-02  -5.125080e-01  7.772733e-02  6.316839e-01  -5.599671e-02  4.488952e-01  -9.306911e-02  1.584914e+00  -4.104099e-02  -2.552250e-01  -3.110478e-01  3.172935e-01  -7.505785e-01  7.732349e-01  8.132744e-02  -1.819142e-01  -7.707969e-02  3.109472e-01  -2.511617e-01  -4.161636e-01  5.417764e-01  -1.607328e-02  1.783222e-01  8.347553e-01  1.713967e-01  4.589958e-01  7.611734e-01  -1.696995e+00  2.346563e-01  1.196179e-01  2.036880e-01  9.737349e-01  -4.465103e-01  -2.522183e-01  -2.014433e-01  1.733617e-02  1.371832e-01  -1.963019e-01  1.972545e-01  -1.997226e-01  3.650738e-02  2.660470e-01  -1.221114e-01  -9.116906e-01  2.801903e-01  -1.501455e+00  2.593616e-01  -3.335943e-01  2.346174e-01  -1.445049e-01  5.123472e-01  -2.648394e-01  -5.128562e-01  -7.906421e-01  -5.025567e-02  3.432344e-02  -7.896347e-02  -2.066352e-01  -9.618695e-01  2.090942e+00  -1.474062e+00  2.328562e-01  1.193189e-01  -5.835687e-02  4.679065e-01  -1.547982e-01  -2.846351e-01  -3.693493e-01  -3.320547e-02  3.340346e-02  -1.303837e+00  -8.967738e-03  8.806363e-01  -1.022001e-01  -4.805442e-02  -2.804209e-01  7.660339e-01  6.838734e-02  -9.079546e-01  2.319354e-01  -1.317329e+00  -3.177821e-01  -8.591490e-02  1.567972e+00  -9.518044e-02  4.341870e-01  2.346392e-01  -1.670702e-01  -9.538366e-02  2.176479e-01  3.572335e-02  -1.600144e-02  5.464255e-02  -2.971398e-01  8.594306e-01  -2.586123e-01  4.809877e-01  -2.196816e-01  -1.023665e-01  -9.003387e-01  -7.554834e-01  4.120862e-01  -4.374115e-01  7.083861e-01  -3.223551e-02  4.674920e-02  -5.649780e-01  4.210920e-01  -7.330188e-02  -1.577752e-02  4.704321e-01  -1.914632e-01  -1.777793e-01  -2.496107e-01  9.155335e-03  9.475900e-02  3.314759e-01  -4.783545e-01  3.513866e-02  -1.964201e-01  -2.775963e-01  9.963652e-02  -1.849494e+00  5.410004e-01  2.726588e-01  1.869968e-01  1.216356e-01  -2.345346e-01  -1.114885e-01  9.414651e-01  -5.078779e-01  -3.370312e-01  6.395476e-02  -2.067919e+00  1.677996e-01  -8.539094e-01  -8.104930e-01  3.223563e-01  -2.021199e-01  4.643870e-01  -2.813341e-01  -3.621354e-01  -1.512680e-01  -1.374948e-02  1.888855e-01  -4.919166e-02  9.911319e-03  8.684682e-01  -9.635072e-01  7.723588e-02  3.090773e-01  -4.601116e-01  1.528800e-01  1.925495e-01  -8.918457e-02  1.012357e-01  3.414133e-01  3.081800e-01  4.207676e-01  -4.732911e-01  3.276325e-01  1.538066e-01  1.526839e-01  1.008144e+00  1.437767e-01  -2.547353e-01  -1.084701e-01  -8.304209e-02  4.694755e-01  1.460023e-01  -1.412663e-01  -4.650986e-01  1.193791e+00  9.223678e-01  1.017629e-02  1.330050e-01  -3.767646e-01  2.244807e-01  1.163350e-01  3.785302e-01  -3.064360e-01  1.511244e+00  6.750739e-01  1.335040e+00  1.831698e-01  -4.757275e-01  5.389691e-02  2.234028e-01  2.430322e-02  -2.146516e-01  -2.851263e-01  5.323464e-01  -1.916690e-01  -2.558484e-03  -3.276230e-01  -2.933411e-01  1.516934e-01  -1.427127e+00  -6.020662e-01  -3.157052e-02  5.714490e-02  3.253842e-01  4.171273e-01  7.577232e-01  1.383528e-01  3.439055e-01  -1.911640e-01  3.204652e-01  -6.057661e-01  -4.679472e-01  -2.439751e-02  -1.800293e-01  1.128525e-01  -2.982700e-01  1.570364e+00  7.863829e-01  4.137959e-01  -3.677135e-01  -7.945672e-02  -1.205342e-01  -3.125117e-01  -3.845791e-01  2.098731e-01  1.617619e-01  -3.484344e-01  -7.215167e-01  2.218108e-01  2.195054e-01  5.781564e-02  -1.148351e-01  8.293329e-01  3.331588e-01  1.043554e-01  -2.617817e-01  -2.019081e-01  -1.797781e+00  -2.284806e-01  -1.093896e+00  1.934880e-01  6.936874e-01  -1.685469e-01  1.562076e-01  3.882548e-01  -6.006700e-01  -3.446576e-01  1.204536e-01  1.340974e-01  1.259975e+00  -1.282263e+00  1.454821e-01  3.836680e-01  2.725747e-01  -4.352521e-02  7.643214e-02  -8.696536e-01  -1.875945e-01  -4.790924e-01  -3.104129e-01  9.692425e-02  -8.034089e-01  7.768335e-02  -2.041430e-01  1.247950e+00  -3.995610e-01  -3.057067e-01  5.946589e-02  -4.260026e-01  1.162449e-01  -3.264465e-01  4.273590e-02  1.653047e-01  -5.350295e-01  2.076951e-01  2.268246e-01  4.574666e-01  -1.273564e+00  -5.312895e-01  3.338171e-01  2.990004e-01  -1.221949e-01  6.574784e-01  -1.069846e-01  3.866800e-01  3.842901e-01  4.054002e-02  1.203717e-01  -1.771104e-01  -1.257726e-01  -2.150123e+00  -6.314935e-02  5.665591e-02  5.640716e-01  -2.177178e-01  1.007146e-01  2.245328e-01  2.203980e-01  3.717579e-01  -5.879948e-01  -6.288861e-02  -6.816743e-02  -2.523196e-02  -2.376187e-01  5.694937e-01  3.844425e-02  -6.661673e-01  -5.232244e-01  1.175439e-03  9.952726e-03  -4.117225e-02  1.892108e-01  -2.433525e-01  7.659268e-01  2.770936e-01  -5.388626e-01  3.862345e-01  2.275250e-01  -9.871732e-02  -2.613703e-01  2.374890e-01  8.379546e-01  -7.909315e-01  -8.022664e-01  -3.551103e-01  -9.868979e-02  5.673269e-01  -6.585911e-01  5.391079e-01  -7.484561e-02  -1.187305e-01  -2.002804e-01  9.447715e-01  6.092335e-01  3.895710e-02  9.028031e-03  3.444494e-01  3.316536e-01  6.794497e-01  -5.970169e-01  -1.528576e-01  3.730023e-01  8.939881e-01  -7.976258e-01  1.489158e-01  3.077649e-01  6.366794e-02  -3.357407e-01  2.893628e-01  4.086940e-01  1.029102e+00  9.390012e-01  -9.729669e-01  -1.003906e+00  -5.632223e-01  -3.377834e-01  6.092017e-01  5.201036e-01  6.420457e-02  -4.682176e-01  1.129011e-01  6.734668e-01  -3.084008e-01  1.722934e-01  -5.255052e-01  -5.345029e-02  -1.734004e-01  -2.037046e-01  -4.750085e-01  2.944499e-01  1.099583e+00  -1.911845e-01  2.420218e-01  -4.499022e-01  -2.185248e-01  -6.901167e-02  -3.347565e-01  5.454418e-01  -1.055713e+00  7.002077e-01  3.343090e-01  -2.406678e-01  -2.252230e-01  5.962201e-01  2.642677e-01  1.895931e-01  -2.604780e-01  -3.839808e-01  2.309979e-01  2.893274e-01  9.171683e-02  -1.465758e-01  4.783021e-01  -2.733042e-02  -1.215653e-01  4.800641e-01  -8.569124e-02  -1.562851e-01  -4.399853e-01  3.155596e-01  4.578485e-01  -1.027040e+00  -5.353831e-01  4.891815e-01  1.482054e-01  -6.120048e-01  1.924724e-01  6.542941e-01  -1.641402e-01  5.573187e-01  1.192475e+00  2.970951e-01  -1.902493e-01  -2.565275e-01  -5.189735e-01  2.328627e-01  1.094924e-01  -2.311319e-01  -5.152285e-01  -1.010974e-01  -5.611218e-01  3.480769e-01  5.795666e-01  -7.482425e-01  -1.600707e-01  7.259085e-01  -2.430982e-01  2.599913e-01  3.584853e-01  -3.319014e-01  4.666224e-01  -8.219840e-03  6.110384e-01  3.037361e-01  -4.182757e-01  -4.930595e-01  6.353877e-01  3.917231e-01  4.879705e-02  3.392175e-01  2.743332e-01  -5.637821e-01  1.350635e-01  3.057080e-01  -5.624103e-01  -8.636778e-03  -6.635528e-01  2.540610e-01  -3.626924e-02  -1.623618e-01  -6.701862e-01  -2.254366e-01  1.874218e-01  -1.982740e-01  7.664163e-01  5.480672e-01  -1.209877e+00  -2.486887e-01  5.882804e-01  -6.300380e-01  -2.361475e-01  -1.751882e-01  6.341153e-01  -6.472607e-01  -3.598286e-01  1.286678e-01  -1.221475e+00  3.170078e-02  4.076560e-01  2.511597e-01  3.164422e-01  -2.218636e-01  -1.213709e-01  -5.959728e-01  1.046380e-02  2.193767e-01  2.434603e-01  8.638781e-01  -5.418569e-01  8.192448e-02  -1.398454e-01  -5.394159e-02  1.163921e+00  4.830929e-01  -8.155635e-01  -9.045498e-01  -2.478225e-01  1.028189e+00  -7.663437e-03  2.135324e-01  4.604799e-01  1.961297e-02  -4.095570e-01  4.588687e-01  -5.419395e-03  3.565106e-01  -7.658969e-01  1.469696e-02  -1.842804e-01  -6.874051e-01  1.012175e-01  1.130611e-01  4.678939e-01  4.516564e-01  -2.459704e-01  -4.348878e-01  1.135156e-01  -3.443529e-01  -1.192871e+00  -1.005946e-01  2.146302e-01  4.684982e-01  4.186389e-01  -1.156708e-01  -7.964588e-02  4.859036e-01  -4.716058e-01  4.302241e-01  3.756920e-02  -1.158171e+00  7.693276e-02  1.748269e-01  1.775231e-01  -1.735977e-01  4.273786e-01  -7.170789e-01  9.095449e-02  1.958267e-01  1.446397e-01  1.082518e-01  -9.032036e-01  -3.575475e-01  1.112257e-01  8.400866e-01  -2.116972e-01  -5.283611e-01  -8.029772e-02  -7.274522e-01  -4.445448e-01  -2.036995e-01  1.872485e-01  1.936096e-01  2.645006e-01  5.410290e-02  2.548800e-01  6.787143e-03  4.680015e-01  -4.068049e-02  -5.809126e-01  8.028297e-01  -2.158378e-01  -1.831448e-02  1.986231e-01  3.732480e-01  -8.694260e-02  2.398388e-01  -4.804529e-01  1.923590e-01  3.896371e-01  3.904632e-02  -4.042845e-02  -3.811880e-01  -4.432242e-01  8.320892e-01  2.171322e-01  2.684273e-01  1.054024e-01  4.078166e-01  7.359585e-01  -1.502483e+00  -5.900517e-01  -8.627156e-02  -4.623763e-01  -5.397024e-03  -5.826991e-01  -3.288366e-01  -2.189106e-02  -1.686708e+00  -2.073945e-01  2.222459e-01  -5.190232e-01  2.405014e-01  -3.450897e-01  6.598521e-01  -3.055396e-02  2.840449e-01  4.141489e-02  7.623634e-01  -2.149399e+00  -9.194599e-01  2.674029e-01  4.467673e-02  -4.392873e-01  -6.918038e-02  2.294607e-01  1.191533e+00  8.844750e-02  -3.863634e-01  -5.566604e-01  -1.655257e-01  -1.689502e-01  5.179291e-02  2.956071e-01  3.978231e-01  3.581624e-01  -3.844892e-01  -6.586403e-02  1.850830e-01  1.249548e+00  1.769936e+00  4.957261e-02  1.572621e+00  -3.392092e-01  -3.783314e-01  1.257728e-01  -2.603289e-01  -6.999251e-01  -5.052812e-01  1.958423e-01  -1.866953e-01  1.779189e-01  1.700201e-01  3.894061e-01  -8.431502e-02  7.679481e-01  -1.958600e-01  -1.109342e+00  1.161795e-01  -4.065761e-01  4.269113e-01  5.711091e-02  1.069081e-01  9.340341e-01  -7.997308e-01  9.839792e-01  -3.472174e-01  2.308531e-01  1.527307e-01  -3.330321e-01  -6.202274e-02  5.506201e-01  5.876419e-02  3.641310e-01  -1.606543e-01  7.497622e-02  -3.419963e-01  -3.156394e-01  3.145785e-01  -7.257470e-01  1.546153e-01  -2.234621e-01  -2.917013e-01  4.448679e-01  8.174487e-01  4.505532e-01  -4.254449e-01  -9.395146e-01  1.324579e+00  1.620370e+00  4.321479e-01  -2.972282e-01  3.942219e-01  -2.845739e-01  1.301137e-02  2.505298e-01  1.086241e-01  -1.610550e+00  -5.070297e-03  2.371828e-01  -4.162204e-01  -4.540279e-01  -5.697230e-01  -4.545093e-02  -3.838783e-01  5.019238e-01  1.731885e-01  2.887098e-01  3.534137e-01  3.287270e-02  1.368958e+00  -5.899476e-02  -1.166353e+00  3.110429e-01  4.566835e-01  -1.838978e-01  2.428447e-01  -1.553407e-01  1.535997e-01  -8.193078e-01  -7.628861e-01  3.997184e-01  5.394217e-01  -4.204212e-01  -7.518073e-02  -2.527660e-02  -1.162489e-01  4.636368e-01  -1.732985e-01  7.756993e-02  1.206942e-01  -2.347566e-01  -1.345090e+00  1.313957e+00  -1.681581e+00  -2.380351e-01  -1.439668e-02  -2.224077e-01  5.714930e-01  -2.684289e-01  -2.059043e-01  2.586081e-01  6.925598e-02  1.556553e-01  -4.429573e-01  -7.612821e-01  -6.604383e-01  -1.569484e-01  -3.327856e-01  -5.474105e-01  -6.108721e-01  -1.467290e-01  -2.461526e-01  -1.227440e-01  3.704141e-01  5.106467e-01  -7.127717e-01  1.460051e+00  4.656415e-02  -4.434555e-01  -1.895034e-01  -4.388221e-01  2.200612e-01  6.529321e-01  5.057403e-01  -7.326163e-02  7.472396e-01  -1.078372e+00  5.942548e-02  2.312360e-01  3.803977e-01  -3.646978e-01  9.653964e-01  3.382048e-01  -4.290001e-02  -6.750776e-01  8.413377e-02  7.682618e-02  -6.208091e-01  -1.071422e+00  2.788104e-01  2.525294e-01  -1.922417e-03  -2.691446e-01  -7.475381e-01  -9.088887e-02  -3.501453e-01  1.349719e-01  7.069964e-01  -7.859923e-02  4.810068e-01  -2.056672e-01  -2.279856e-01  2.489650e-01  -4.644581e-01  6.042525e-01  -9.361036e-01  -1.572982e-02  -2.969998e-02  2.880772e-01  2.713667e-01  1.044917e+00  -1.807889e-01  -2.405354e-01  2.132277e+00  4.021298e-01  8.318885e-01  -2.324382e-01  4.508856e-01  -5.172893e-02  1.639750e-01  5.288227e-01  -4.043840e-01  9.926012e-02  2.557506e+00  -3.093372e-03  2.648239e-01  -3.303852e-01  -1.140547e-01  -4.026592e-01  -4.214981e-01  1.523354e-01  -5.045297e-01  -1.357478e-01  -8.665571e-02  -8.403600e-01  -3.676262e-01  1.142311e-01  4.320887e-02  -2.215017e-01  -6.013749e-02  -4.609166e-01  6.618357e-01  -1.096504e-02  8.945654e-02  -1.017416e-01  1.278282e-01  -1.237874e-01  1.220562e-01  6.902574e-01  2.411240e-01  -2.460089e-01  3.870380e-01  -2.400998e-01  -2.113266e-01  -5.386288e-01  -6.509203e-01  -1.576072e-01  -2.939383e-01  -1.483736e-01  3.323262e-01  -1.483634e-01  -3.474106e-01  6.680216e-01  8.321047e-02  -2.732119e-02  -1.802960e-01  -8.990732e-02  6.621397e-01  9.450583e-01  -1.539503e-01  2.208318e-01  -4.020477e-02  4.150825e-01  2.302816e-02  -5.134777e-01  5.222867e-01  2.131515e+00  -1.935178e-02  3.370853e-01  -2.916203e-01  -3.887313e-01  -6.346092e-01  -2.101818e-01  -5.855435e-01  -2.833634e-01  3.784570e-01  3.349951e-01  -6.394023e-01  6.387616e-01  2.210634e-01  2.318845e-01  -5.437838e-01  2.078240e-01  -2.656204e-01  1.483240e-02  -2.154785e-01  3.238536e-01  -1.031607e-01  -9.728102e-02  4.457922e-01  -5.567835e-01  3.500217e-01  5.224977e-01  1.922487e+00  -1.204706e+00  -1.674556e-01  6.333449e-01  6.672742e-02  -1.640761e-02  -2.394608e-01  9.463609e-01  1.504078e-01  2.735946e-01  5.026898e-01  8.406810e-02  2.134610e-01  2.683015e-01  -3.366258e-04  -2.055816e+00  3.611632e-01  2.501487e-02  3.630456e-01  1.953332e-01  -5.196459e-01  8.462819e-02  -3.101857e-02  4.731403e-01  7.597622e-01  -1.106961e-01  9.529698e-02  1.380510e-01  2.796014e-01  -1.919714e-01  2.514556e-01  3.850746e-01  -1.381028e-02  2.253568e-01  1.243807e-01  3.556657e-02  -4.513401e-01  7.688696e-01  -4.231007e-02  1.079547e+00  1.942382e-01  2.352133e-01  -2.857685e-01  2.023860e-01  3.858693e-01  2.041365e-01  4.284140e-02  8.516503e-01  1.082485e-02  -4.229757e-03  -1.248561e-01  -3.515858e-01  -3.397926e-01  1.959899e+00  2.632756e-02  2.218684e-01  -6.435046e-01  -9.500379e-01  -4.142825e-01  -4.412017e-01  -6.458193e-01  -2.070082e+00  2.501127e-01  -6.464525e-01  4.237736e-02  8.148797e-01  -5.170462e-01  -8.928529e-02  1.759197e+00  3.014460e-01  -3.849460e-01  1.601385e-01  -3.488053e-01  3.552383e-01  5.635797e-02  2.911163e-01  -2.933652e-01  2.610451e-01  7.634407e-01  -3.172176e-01  4.394760e-01  1.045374e-01  2.350506e-01  1.524014e-01  2.224004e-01  -4.849508e-01  5.245725e-01  9.073322e-01  2.193972e-01  -5.037634e-02  -5.894524e-01  3.923890e-01  -5.946325e-01  -1.768177e+00  -8.092459e-02  -4.755627e-01  1.716564e-01  -3.905564e-01  1.136487e-01  -1.617036e-01  2.638134e-01  -4.777836e-01  -6.316313e-02  -2.936939e-01  4.577054e-02  3.732881e-01  1.697005e-01  4.843809e-01  4.758943e-01  -4.871400e-01  -3.891815e-01  1.171285e-01  6.085894e-01  -1.699948e-01  -2.176482e-02  -5.937634e-01  8.221409e-01  7.033737e-01  3.052740e-01  -1.208493e-01  2.698976e-01  6.293797e-02  -3.058822e-02  1.374940e+00  2.091386e-01  -1.678294e-01  -8.665476e-03  -4.305444e-01  -1.168657e+00  5.097684e-01  4.010050e-01  6.527863e-01  9.198941e-02  2.435224e-01  -2.463339e-02  -8.725289e-01  3.473781e-01  1.417191e-01  -1.323416e+00  -2.397143e-01  -6.657701e-02  9.759001e-02  4.136307e-01  6.135988e-01  1.011837e-03  1.010267e+00  1.479977e-02  -5.034363e-01  7.060868e-01  -6.032715e-01  3.878177e-01  -3.749901e-01  -9.233761e-01  8.509109e-01  1.108137e-01  4.040700e-01  -1.391317e-01  -4.528624e-01  -4.294192e-02  6.242599e-01  -1.157550e+00  -7.159939e-02  -1.028959e+00  -1.791570e-01  2.674514e-01  -5.965090e-01  -1.744046e-01  -1.373556e+00  -8.089623e-01  -9.828227e-03  -1.033614e-01  -4.881362e-01  -3.646285e-01  5.582392e-01  6.604869e-01  1.939972e-01  -3.857022e-01  -9.459279e-02  4.233541e-01  8.971067e-01  3.642581e-01  1.035646e-01  4.298942e-01  -8.712491e-01  7.052938e-01  2.310816e+00  -1.228044e-01  -5.242487e-01  3.148148e-01  9.818646e-01  -4.091173e-02  1.415454e-01  -3.101661e-01  -6.579304e-01  -3.149424e-02  5.166691e-01  -4.344160e-01  3.303781e-01  7.173187e-01  5.513452e-01  5.830488e-01  -2.277897e-01  -7.936424e-01  -3.057880e-01  3.672002e-01  1.452199e-01  -2.084722e-02  5.369838e-01  -3.188359e-02  -7.624221e-01  -5.636814e-01  -1.736121e-01  -8.335141e-02  -6.401072e-03  -5.316454e-01  -9.862247e-01  2.311232e-01  1.388588e-01  -6.024044e-01  -4.595164e-01  4.537292e-01  1.257116e-02  -5.925509e-01  5.985409e-01  -1.270236e+00  -9.157322e-02  -9.692223e-01  -8.315709e-01  1.939916e-01  -3.364839e-02  -1.263176e+00  1.235115e-01  -1.243101e-01  -9.175514e-02  6.869091e-02  -8.944430e-01  -1.267763e-02  -1.678116e-01  6.553011e-02  -5.931841e-01  -2.171938e-01  -2.498895e-01  -2.764343e-02  6.409980e-02  3.981956e-01  2.500760e-01  -4.687242e-01  1.507492e+00  -3.559310e-01  -3.110098e-01  -3.454612e-01  -8.862249e-01  2.561609e-01  7.514755e-01  3.160571e-01  -2.423739e-01  4.404257e-01  -1.418974e-01  2.775906e-01  -4.411496e-01  4.337377e-01  -2.471732e-01  5.233844e-01  -2.056273e-01  -3.562692e-01  -3.939278e-01  1.433870e-01  -6.564127e-02  4.233736e-01  -4.852211e-01  2.761358e-01  1.037652e-01  -1.683175e-01  -4.519882e-01  -3.343800e-01  -3.791210e-01  -1.097960e+00  -8.820861e-01  2.565475e-01  -8.186288e-01  1.103238e+00  3.403454e-01  -4.906493e-01  5.624191e-01  -5.568164e-02  6.471696e-01  -1.035518e+00  3.372580e-01  -8.404199e-01  8.903570e-02  6.380830e-01  4.053212e-01  -3.743075e-01  5.099444e-01  6.593863e-01  8.961854e-02  7.795094e-01  -7.636362e-01  4.168415e-01  6.622511e-01  5.028515e-01  -3.321537e-02  -4.090914e-01  -2.250158e-02  1.430845e+00  -1.250330e-02  -9.145320e-04  -2.650525e-01  5.566133e-01  3.883371e-01  1.846909e-01  7.625251e-01  -5.513074e-01  1.594945e-01  7.048688e-02  -3.627931e-01  4.759085e-01  -2.980627e-01  7.555400e-02  -5.971827e-02  1.655046e-01  -4.732178e-01  7.871436e-01  5.898660e-01  -6.382841e-01  -4.234639e-02  -2.117047e-01  -4.884000e-01  2.340323e-01  1.030070e+00  -5.382128e-01  1.289642e-01  5.145372e-01  -3.258483e-01  -3.253766e-01  -5.068660e-01  -5.111470e-01  -5.162493e-01  -3.181081e-01  -2.721122e-01  3.850920e-01  -6.072482e-01  -1.875187e-01  -2.580785e-01  4.293314e-01  1.107370e+00  1.120952e-01  3.876712e-01  -5.239553e-01  -5.360596e-01  6.098876e-01  -1.343556e-01  -5.936669e-01  1.427771e-01  5.008330e-01  3.029816e-02  -2.205983e-01  4.312923e-02  -1.281281e-01  2.673097e-01  -1.684294e-01  -3.109457e-01  -4.168518e-02  -1.938787e-01  -1.583314e-01  3.107627e-01  5.879098e-01  3.800121e-01  7.219593e-01  -1.092529e-02  1.794675e-01  -6.746947e-01  -3.822123e-01  4.501857e-01  7.083123e-01  -1.399679e-01  -2.394916e-01  1.266880e-01  5.022460e-01  -1.195582e-01  -1.010059e-01  -6.356511e-02  1.896031e-01  9.696462e-01  -5.998766e-01  -2.013174e-01  -3.174405e-01  -8.875541e-02  -4.070151e-01  4.683861e-01  -9.413654e-02  -1.135228e+00  -3.992296e-01  4.608968e-02  7.182451e-02  6.539891e-01  1.963032e-01  -3.747170e-02  -8.865254e-02  2.562207e-01  -3.423743e-01  -5.412180e-02  1.705378e-02  2.838219e-01  3.623266e-01  -3.536687e-01  1.852840e-01  -3.346991e-01  -5.331221e-01  -2.071399e-01  2.963483e-01  -3.821454e-01  7.624171e-03  -2.524053e-01  5.997961e-01  8.853745e-01  -3.408577e-01  -3.184310e-01  -1.265728e+00  -2.731892e-01  5.365266e-01  -7.374172e-01  4.756660e-01  4.385875e-01  -4.175705e-01  5.111014e-01  -3.025709e-01  -6.149716e-01  1.388684e+00  -2.454994e-01  -6.364982e-02  -3.656082e-01  1.413567e-01  5.899745e-01  1.250622e-01  -7.690841e-01  -9.272248e-01  1.656042e-01  -3.244327e-01  -2.909856e-01  4.216928e-01  -9.883409e-02  -4.051138e-01  3.267865e-01  -6.791007e-02  1.816060e-01  2.949814e-01  -9.944709e-02  5.952049e-01  -6.480688e-01  -5.842112e-01  -1.499619e-01  -3.028866e-01  -2.155047e-01  7.551462e-01  3.302821e-01  -2.864670e-01  -2.175445e-01  4.320952e-01  -2.175726e-01  3.833887e-01  7.291052e-02  -3.044605e-01  4.511772e-01  2.045874e-01  4.040908e-02  -6.159026e-01  1.794436e-01  -3.348491e-01  1.868605e-01  -1.022685e+00  -9.451135e-02  1.562629e+00  -5.680682e-01  6.894408e-01  -1.229885e-01  4.735785e-01  -2.918642e-01  3.898203e-01  1.025801e-01  1.414086e-02  7.945681e-01  1.747030e+00  -7.729059e-02  1.388506e-01  1.869803e-01  -1.535724e-01  1.617485e-01  -9.945062e-01  4.521993e-01  -4.553264e-02  -1.496742e-01  -4.116018e-01  1.849724e+00  4.884116e-01  -2.705322e-01  4.247353e-01  2.552240e-01  1.257236e-01  -2.161227e-01  -1.069098e+00  -8.044663e-01  2.020273e-01  3.717690e-02  2.672934e-02  4.883939e-02  6.890138e-02  -5.219155e-01  -5.656247e-02  -3.756620e-01  3.476154e-01  2.159905e-01  6.595558e-03  -3.703938e-01  -9.912784e-01  2.306215e-01  -1.115968e+00  -3.101953e-01  2.509687e-01  5.100715e-01  7.254173e-01  1.018756e+00  2.272051e-01  -6.940190e-02  1.669642e-01  3.213837e-01  -2.742132e-01  -5.262003e-01  -2.431425e-01  -9.386791e-01  4.008565e-01  4.668674e-01  3.783890e-02  5.490657e-01  -8.107225e-01  3.734139e-02  -2.578962e-01  -4.115243e-01  8.781956e-01  -7.122194e-01  4.829134e-01  -2.785681e-01  1.212147e-01  2.362846e-01  -3.447729e-01  -4.768608e-01  -3.905025e-01  -4.611297e-01  -1.545833e-01  -1.335055e-01  2.040695e-01  3.111618e-01  4.830460e-01  8.630945e-01  -1.679687e-01  -1.426633e-02  2.481805e-01  -3.445049e-01  -8.847458e-01  -3.239043e-01  1.068617e-01  -9.670478e-02  -9.905161e-01  -1.282100e+00  -2.524087e-01  3.446741e-01  -1.237526e-01  1.326224e-01  -3.928388e-02  -2.999011e-01  -1.469408e-01  8.304681e-01  3.261067e-01  1.200419e-01  -8.748071e-03  5.642438e-01  -1.418584e-01  -4.871134e-03  -2.931841e-02  -2.538963e-01  2.290407e-01  6.328189e-02  -3.174674e-01  2.203039e-02  -1.135010e+00  -2.130912e-01  8.000301e-01  1.348420e-01  -7.580225e-01  6.730048e-01  4.449362e-01  1.571331e-01  -1.893184e-01  9.747702e-01  3.742716e-01  -4.918450e-01  -3.309180e-01  4.785372e-01  1.146678e-01  -8.623098e-02  -1.079102e-02  -6.965871e-02  4.476956e-01  -5.474728e-01  -1.210136e-01  2.471915e-01  -2.420381e-01  -3.340417e-01  -2.260516e-01  1.061254e+00  2.707045e-01  -4.985611e-02  -5.678606e-01  4.175914e-01  -9.705064e-01  5.450532e-01  -4.997362e-01  -3.815077e-01  6.559070e-02  -1.631707e-02  -3.094885e-01  4.713839e-01  9.679285e-01  2.018516e-01  -1.947298e-01  7.458141e-01  4.998868e-01  3.205600e-01  -3.249445e-01  -8.028053e-01  -2.483660e-01  3.469684e-01  2.057483e-01  3.465388e-01  2.367114e-01  -1.001378e+00  -5.924776e-01  1.147503e+00  3.494947e-01  -6.629515e-02  -1.516245e-01  -3.667189e-01  -6.372342e-01  2.884693e-01  -8.125143e-01  -8.019758e-01  -1.633577e-01  1.178011e-01  8.380411e-02  5.514605e-01  4.274504e-01  1.780048e-02  -2.066313e-01  9.281477e-02  -2.627884e-01  -1.510457e-01  4.503674e-01  -2.728137e-01  3.285861e-02  -6.868435e-01  -1.731964e-01  5.460677e-01  -7.293954e-01  -2.490839e-01  4.392340e-01  4.512620e-02  9.529469e-01  -5.560193e-01  4.463603e-01  -6.284608e-01  -3.139759e-01  2.992324e-01  6.458482e-01  -9.469361e-01  4.170566e-01  -2.836430e-01  -8.515780e-02  4.215004e-01  -1.809949e-01  5.649850e-01  -3.469165e-01  7.685342e-01  9.919976e-02  5.092805e-01  7.566736e-02  -1.242211e+00  -4.490322e-01  -4.057513e-01  -2.231628e-01  -1.304878e-01  -4.023847e-01  -8.360482e-01  8.351362e-02  2.705846e-01  -1.596369e-02  -4.906956e-02  -4.020331e-01  1.002206e-02  -1.114389e-01  3.613329e-01  -3.586255e-01  -4.258390e-01  1.394926e-01  6.343666e-01  6.426591e-02  1.630597e-01  -4.868260e-01  -1.289883e+00  9.544174e-02  5.287852e-01  2.778012e-01  -5.270852e-01  -3.966900e-01  2.543932e-01  4.670379e-01  1.202816e+00  -1.124821e-01  2.543924e-01  1.295222e-01  -6.697266e-01  -4.037263e-02  6.579630e-01  5.315490e-01  -6.773413e-01  -1.908851e-01  3.387950e-01  9.598694e-01  4.907008e-01  3.023382e-02  3.399229e-01  1.497655e-01  3.068581e-01  -6.554189e-01  -2.549168e-01  9.322956e-01  -2.737374e-01  -5.713942e-01  2.500016e-01  4.703214e-01  -1.209007e-01  -5.077454e-01  2.350288e-02  -2.811019e-04  1.078840e+00  -4.091105e-01  -1.680908e+00  -1.013341e-01  1.802762e-01  -4.140177e-01  2.459529e-01  4.656672e-02  5.544608e-01  6.953362e-01  -4.100968e-01  1.394477e+00  -1.041337e+00  -2.956613e-01  5.234404e-02  4.408509e-01  2.141228e-01  -7.006148e-01  2.957297e-02  2.814580e-01  1.107532e-01  -5.682051e-01  1.045592e-01  4.912562e-01  5.926365e-02  -7.677543e-01  -6.261765e-01  -2.144806e-01  -1.695254e-01  -5.281156e-02  7.622985e-01  4.501186e-01  -1.520088e+00  -3.062229e-01  2.942171e-01  -1.444276e-01  1.603739e+00  6.168438e-01  3.482669e-01  -7.650225e-02  9.799732e-02  -1.502177e-01  -3.887798e-01  -4.134547e-02  -1.840737e-01  2.100304e-01  -4.879919e-01  9.082509e-02  -6.135891e-01  -3.707648e-01  4.117085e-02  8.505893e-02  3.259040e-02  -1.181524e-01  -7.707041e-02  -1.707597e-01  1.396163e+00  -1.153421e-01  -4.603963e-01  -1.908352e-01  2.261272e-01  -4.030315e-03  -6.920772e-01  2.392973e-01  -3.911106e-02  -5.638843e-01  4.617127e-01  -7.883036e-01  -4.436139e-01  6.941340e-01  -4.106316e-01  -8.787897e-01  1.181048e-01  2.979846e-01  1.009895e+00  -4.399584e-01  -5.724804e-01  -3.696342e-01  -1.217911e-01  -3.880500e-01  -4.702122e-01  2.984712e-01  1.018223e-01  -8.703972e-02  -3.529615e-01  1.046275e-01  1.128834e-01  -5.974212e-02  1.911474e-03  3.839576e-01  -9.359104e-01  -4.668877e-01  -8.118384e-03  -2.272421e-01  -2.369566e-02  4.698375e-01  -1.697478e-01  -2.811802e-01  -1.171044e+00  7.047920e-01  3.938606e-01  -2.934210e-01  -8.717594e-02  1.315251e-01  5.322304e-01  1.408374e-01  8.536970e-02  -3.577618e-02  -4.139248e-01  -1.766174e-01  9.993980e-02  8.246056e-02  5.439204e-02  2.659097e+00  -3.964035e-01  -6.110284e-01  -2.829111e-01  -2.226666e-01  8.256872e-02  1.391303e-01  -5.936251e-01  1.074283e+00  -9.882239e-02  -8.086486e-01  1.801956e+00  1.873610e-01  3.567546e-01  3.130752e-01  -2.165558e-01  1.024201e-01  -1.317770e+00  3.052005e-01  1.054614e+00  -4.359795e-01  -2.922755e-01  -8.134051e-02  2.335695e+00  -6.767794e-02  -1.056873e-01  8.854389e-01  -2.382156e-02  4.222261e-01  -2.986702e-01  -8.945457e-02  -1.904765e-01  -1.019152e-01  1.786428e-02  -1.857748e-01  1.514637e-01  3.236072e-01  1.317688e-01  2.952477e-02  -1.528015e+00  -4.187223e-02  4.994565e-01  1.997319e-01  1.380846e+00  3.848315e-01  1.875881e-01  -8.184339e-01  2.600377e-01  3.133107e-01  -1.341872e-01  -5.471233e-02  7.431867e-01  1.581695e-01  7.685003e-01  2.819965e-03  -5.107942e-01  1.844213e-01  -8.742991e-02  1.426136e-01  -3.191998e-01  -8.081689e-02  6.085986e-01  -1.538966e-01  4.382148e-01  -3.547272e-01  5.148830e-01  -3.403918e-01  5.799859e-01  -1.770123e-01  -5.611822e-01  1.035320e+00  5.397917e-01  -6.321018e-01  3.385187e-01  -1.761942e-01  -1.490412e-01  3.172321e-01  2.286689e-01  5.518772e-02  2.245040e-01  -7.796698e-01  5.276703e-02  -7.447590e-01  -3.674726e-01  -2.644777e-01  -1.799894e-01  2.128840e-01  2.996618e-01  -4.230491e-01  -2.751442e-01  5.107568e-01  3.007705e-01  5.302368e-01  5.128415e-01  1.957039e-01  -4.922593e-01  -1.538936e-01  -3.094206e-01  -5.058401e-01  -1.612580e-02  -8.280152e-02  -8.771420e-02  3.555069e-01  6.373569e-02  -3.785044e-01  1.872910e-01  -2.728365e-02  1.351953e-01  2.339212e-01  6.012964e-01  -2.067750e-01  9.910356e-03  3.646981e-01  -4.158741e-01  8.353648e-02  6.770517e-01  2.267890e-01  4.878206e-01  6.605592e-01  3.763763e-01  1.741546e+00  -4.339551e-01  4.088781e-01  -4.977940e-02  1.011185e-01  -6.911594e-03  2.936565e-01  -4.718078e-02  4.517008e-01  8.228121e-01  -2.963392e-01  8.638903e-02  5.400921e-01  4.304464e-01  -2.221406e-01  1.862657e-01  2.108517e-01  2.600135e-01  -1.930009e-01  -3.566380e-01  2.534615e-01  2.442289e-02  4.017724e-01  -1.247889e+00  1.504329e-01  1.364778e+00  3.099076e-01  -2.471174e-02  4.175676e-01  -1.488615e-01  -1.252316e-01  -3.930600e-01  -3.176137e-01  7.349539e-01  -1.369080e+00  8.563542e-01  9.966251e-02  -2.071682e-03  -8.497358e-01  1.666979e-01  1.770216e-01  -1.169669e-02  2.497113e-01  5.518535e-01  3.264933e-01  -4.856785e-01  -6.813363e-01  1.658006e-02  1.183679e-01  4.699803e-01  1.027610e-01  -4.808268e-01  1.532183e-01  -3.930402e-01  2.262709e-01  8.636332e-01  3.463884e-01  -4.649921e-01  -2.386108e-01  -1.428814e+00  -4.809474e-01  -1.158364e-01  3.332710e-01  -1.235359e-01  2.656211e-01  3.625504e-01  2.194910e-01  -1.884268e-01  3.894423e-01  7.016897e-01  -9.142730e-02  5.079234e-01  2.296930e-01  7.101310e-02  2.201912e-01  -1.065042e-01  1.082720e-01  4.951029e-01  -6.516532e-01  -1.479211e+00  5.965947e-02  1.889083e-01  3.648768e-01  2.841280e-01  -2.379534e-01  5.169518e-01  -2.226830e-02  -3.050050e-01  4.934671e-01  -2.164721e-02  6.710411e-01  -3.814115e-01  -1.343519e+00  3.678933e-01  5.541743e-01  3.472309e-01  1.532854e-02  -1.294952e+00  3.470358e-01  1.112012e+00  6.634396e-01  -1.091456e-01  6.233059e-01  5.787209e-01  2.798657e-01  -3.432807e-01  3.477255e-01  -7.971093e-02  -4.153169e-02  8.632484e-02  -7.296505e-01  -9.246763e-02  -9.526660e-01  5.050266e-01  7.696891e-01  7.672530e-02  5.387373e-01  6.011723e-02  -7.975312e-01  -2.629723e-01  2.723661e-01  6.618146e-01  -7.948970e-01  -1.810975e-01  -1.059135e-02  5.717355e-01  2.806577e-01  -1.873339e-01  -3.787463e-01  5.436336e-02  8.235423e-02  2.825280e-01  1.392223e-01  8.682608e-03  -1.451136e-01  -2.293554e-01  -2.653427e+00  -1.358946e-01  3.960526e-01  5.125378e-01  -1.065526e-01  -4.581758e-01  -2.424046e-01  9.294122e-01  -4.477216e-01  1.036295e+00  3.358908e-01  -4.655649e-01  3.466572e-02  4.453315e-01  -6.465824e-01  1.067451e+00  9.008955e-01  2.066738e-01  -6.034923e-01  -9.444249e-02  -1.680866e+00  3.445667e-01  7.636604e-01  2.855320e-02  -3.521065e-01  3.974523e-01  1.587749e-01  -3.842892e-01  -7.796456e-01  -9.557336e-02  -4.706385e-03  1.300302e-01  7.182650e-02  -2.591404e-01  -1.504777e-01  -2.157185e-01  -1.019451e-01  4.064049e-01  1.348661e+00  -1.933375e-01  1.355558e-01  -1.416513e+00  -1.347016e+00  1.515526e-01  1.300573e-02  -6.836481e-01  -2.944484e-01  -1.684161e-01  -2.602510e-01  2.073552e-02  -3.141515e-01  2.170020e-01  4.896678e-01  -5.699637e-01  -2.295616e-01  -5.311494e-01  -2.218233e-01  -2.149790e+00  -6.682272e-01  -1.737017e-01  -5.109016e-01  -1.724161e-02  4.268238e-01  1.195597e-01  1.864456e-01  -1.653087e-01  6.478019e-01  -4.589399e-01  3.480057e-01  2.428301e-01  2.005537e-01  5.621150e-01  1.184832e-01  -4.335932e-01  -1.774474e-01  9.003059e-01  6.693147e-01  -3.234217e-02  7.143371e-01  6.082810e-01  -3.992575e-02  1.370690e-01  -3.333502e-01  -1.425493e-01  9.398904e-02  5.186414e-02  -2.153604e+00  -8.888035e-02  8.528532e-01  6.293634e-01  -3.375042e-01  -2.783249e+00  2.727784e-01  2.527257e-01  -3.555120e-01  1.498094e-01  -3.166976e-01  -6.449105e-01  -4.029486e-01  2.970961e-01  -3.392163e-01  -2.691965e-01  2.961679e-01  -2.357166e-01  5.357316e-01  -1.502134e-01  -4.433785e-02  -1.281181e-01  8.023408e-02  2.635284e-01  -5.002014e-01  5.242629e-02  -4.547413e-01  3.538208e-01  9.735214e-01  5.398589e-01  -4.770702e-01  -4.752607e-01  -1.360230e-01  -6.555437e-02  -4.028442e-01  8.997617e-01  -3.063549e-01  1.808704e-02  1.284714e-01  -1.895796e-01  3.242824e-01  4.323340e-01  6.608513e-01  -6.500660e-03  -1.586481e-01  -6.366671e-02  7.011130e-01  6.628697e-01  -1.078442e+00  8.516388e-01  1.743108e-01  -5.161897e-03  -2.400604e-01  -1.804624e-01  1.918135e-01  -7.682972e-02  -3.651251e-01  -6.739219e-01  -2.312470e-01  1.809219e+00  -1.294226e-01  -3.688567e-01  2.259184e-01  7.873054e-02  -2.450953e-01  -1.053728e+00  -8.755273e-02  3.330677e-01  -9.840716e-01  1.348966e+00  5.720583e-01  9.923618e-02  -1.012432e+00  -9.227317e-02  -1.844218e-01  -2.410532e-01  -2.177762e-01  -4.832273e-01  -2.744912e-01  5.500425e-01  -1.013098e+00  -9.345549e-01  2.563115e-01  -6.858192e-02  -1.054371e-01  -3.261634e-01  1.473569e-01  -9.754016e-02  4.945163e-01  6.964304e-01  -3.896540e-02  -3.326693e-01  -2.865871e-01  -6.835161e-01  -1.860102e-02  2.489248e-01  -7.373871e-02  -8.425407e-02  -1.330809e-01  2.868182e-01  7.730456e-02  7.061090e-02  -1.296140e-01  -5.804247e-02  -7.824221e-02  -1.378286e-02  6.223576e-01  5.537841e-01  -4.455682e-01  1.032586e-01  -2.340365e-02  1.113811e+00  -6.355934e-01  -9.233449e-01  4.943539e-02  -2.109397e-02  5.757453e-01  3.931919e-02  -3.343508e-01  6.078867e-01  1.731533e-01  -3.451945e-01  1.659621e+00  -1.225428e-01  5.301022e-01  1.250909e+00  -6.787681e-01  -5.325202e-02  2.373570e-01  -3.279945e-01  2.671987e-01  -3.478139e-01  1.528892e-01  9.738556e-01  6.119214e-01  -1.879407e-02  1.319624e-01  9.235566e-01  -4.886824e-01  -3.578231e-01  2.613011e-01  1.955815e-02  -1.064731e-01  2.897557e-01  -1.340560e-01  1.156630e-01  -5.900235e-01  5.829734e-01  4.257463e-01  -9.934223e-02  1.245567e-01  4.092156e-03  -1.022760e+00  -5.376840e-01  -4.573854e-02  1.469395e-01  8.983931e-02  2.739739e-01  1.286060e-01  7.248930e-01  2.933901e-02  -4.279001e-01  -9.840083e-01  3.682953e-01  1.305924e-01  1.831764e-01  -3.082036e-02  -7.694916e-02  2.137681e-01  2.416765e-01  -2.835389e+00  2.168575e-01  -3.800022e-02  3.088160e-01  3.106784e-01  1.004420e-01  -3.067555e-01  2.064520e-01  1.031420e-01  -2.491525e-01  3.135408e-02  -2.105978e-01  -3.631534e-01  -5.676286e-01  3.719736e-01  -7.914202e-01  -9.883724e-02  9.316363e-01  1.963469e-01  -1.565053e-01  1.269090e-01  -6.619119e-01  -3.774208e-01  -5.218380e-02  -2.061541e-01  2.863878e-01  -8.337362e-01  6.930514e-02  -2.428278e-01  -1.986048e-01  -2.652665e-01  -4.916753e-01  6.108293e-02  1.687580e-01  5.803916e-01  1.379953e-01  -7.922792e-02  -2.439872e-01  -1.068004e+00  -8.127102e-01  -6.826973e-02  5.254536e-01  3.228713e-01  -3.469039e-01  6.449412e-02  -1.611221e-01  -2.907769e-01  7.332177e-01  6.384103e-01  4.465880e-02  3.238321e-01  -1.485171e+00  -3.051455e-01  1.761455e-01  2.210796e-01  -2.492409e-01  1.687554e-01  1.087901e+00  2.733965e-01  1.612912e-01  1.867262e-01  -7.713365e-02  -4.965658e-02  7.590818e-01  2.243522e-01  1.528977e-01  -3.355340e-01  3.667018e-01  -2.457264e-01  3.170004e-01  -1.759623e-01  -1.181636e+00  -1.281276e-01  3.534116e-01  1.902182e-01  -2.966688e-01  -2.034821e-01  -5.078709e-02  -1.272778e-01  -3.139732e-01  -2.249032e-01  -2.012089e-01  7.638767e-01  -4.989274e-01  -1.299320e+00  3.130197e-01  6.644136e-01  1.811035e-01  -4.080448e-01  -1.508858e+00  2.915548e-01  5.995826e-01  1.091421e-01  1.743970e-01  6.603872e-01  2.683842e-01  1.270704e-01  7.526386e-02  2.440680e-01  -3.541888e-01  4.679624e-01  -2.546734e-01  -2.317577e-01  3.521508e-01  -1.334840e+00  -4.507559e-02  3.729300e-01  3.427866e-01  8.417413e-01  1.804874e-01  4.680413e-02  3.404457e-01  1.051627e-01  5.208648e-01  -5.570092e-01  1.572385e-01  -3.594506e-01  3.971587e-01  4.696260e-01  -2.367687e-01  -5.101874e-01  7.414683e-03  -4.081684e-01  3.127205e-01  1.234079e-01  2.488406e-01  -2.404112e-01  -7.557603e-02  -1.853911e+00  -2.301468e-01  3.101223e-01  -2.913748e-01  -7.793888e-01  1.152442e-01  -2.743522e-01  -9.387203e-03  -6.204433e-01  -1.086725e-01  -1.807774e-02  1.873374e-01  -7.472877e-02  -1.416077e-01  -2.541400e-01  5.170149e-01  1.992911e-01  -6.763457e-01  -1.088806e-01  6.868108e-02  -2.789043e-01  5.473563e-01  7.004726e-01  8.721141e-02  3.071050e-01  -1.386423e-01  9.690586e-01  -6.721699e-01  2.268388e-01  -3.506334e-02  3.140017e-01  8.254247e-02  -5.979931e-01  -4.205432e-01  1.922507e-01  -8.105801e-02  -1.848750e-01  1.617599e-01  7.676400e-01  2.402844e-01  -3.432118e-01  -3.724138e-01  1.878052e-01  1.713343e-02  -2.095632e-01  6.864938e-01  4.795224e-01  -1.055205e+00  -3.914020e-01  9.861828e-02  9.374243e-02  7.779574e-01  5.984483e-01  -2.454883e-01  -1.309121e-01  4.707934e-01  -3.375398e-01  -4.092631e-01  -5.880007e-01  -2.986286e-01  6.987060e-01  -1.620223e-01  -1.751574e-01  -1.112180e-01  -5.665016e-01  2.137558e-01  2.695999e-01  -5.931732e-02  3.234740e-02  -9.515733e-02  2.848628e-02  4.868538e-01  -4.752617e-01  -5.429157e-01  -6.406541e-01  -2.634026e-01  3.805739e-01  -3.049650e-01  3.577803e-01  3.614480e-01  -4.225311e-01  2.199672e-01  -6.262486e-01  -3.651201e-01  1.269634e+00  -5.471529e-01  -6.313875e-01  3.997058e-01  2.990407e-01  1.291902e+00  -2.339115e-01  -2.629934e-01  -4.403217e-01  -3.376756e-01  -3.476872e-01  -4.696051e-01  2.839870e-01  4.057671e-02  -4.142148e-02  1.492936e-01  -3.888639e-02  7.092766e-02  8.040147e-02  -1.353878e-01  9.621867e-01  -1.259189e+00  -6.395265e-01  1.062967e-01  -4.984266e-01  9.329667e-02  6.282027e-01  -1.610483e-01  1.560555e-01  -8.938726e-01  8.416452e-01  1.049221e-01  1.434394e-01  -5.421480e-01  -6.660645e-01  3.756761e-01  3.989280e-02  -3.832761e-01  2.449952e-01  -2.064602e-01  -4.325268e-01  -8.381509e-02  -8.759423e-01  -4.109224e-01  1.926924e+00  -1.369290e-03  -1.117034e+00  -2.712344e-01  2.564330e-01  2.594522e-02  2.736403e-02  -4.909840e-02  -5.100681e-03  -1.781613e-01  -1.809894e-01  4.797262e-02  4.699443e-01  4.982035e-01  -2.782950e-01  2.336159e-01  1.673164e+00  1.538820e-01  -1.498422e-01  7.033905e-02  3.204645e-03  -1.062816e+00  -3.153125e-01  -9.623592e-02  7.214784e-02  1.908602e-01  2.027397e-01  4.134052e-01  5.456949e-01  4.870451e-01  -1.806294e-01  -2.019003e-02  -7.275556e-01  -1.729283e+00  -1.020406e+00  -5.284711e-01  4.993295e-01  -5.002158e-01  2.107402e-01  -2.570719e-01  7.179605e-01  -2.885852e-01  -2.089770e-01  -3.555564e-02  9.667258e-01  3.107502e-01  4.416213e-01  1.395939e-01  -1.270547e-01  -1.377477e+00  -1.272511e-02  2.657230e-01  7.507081e-02  8.686745e-02  1.594293e+00  2.800284e-01  8.548680e-01  -4.655989e-01  -1.409106e+00  2.356443e-01  -4.544740e-01  -2.926859e-01  8.972517e-01  3.374989e-01  1.856111e-01  -1.291676e-01  -6.903387e-01  1.264607e+00  -5.333749e-01  -9.356792e-02  4.164010e-02  -2.629132e-02  -4.561352e-01  9.624599e-01  1.771178e-01  9.535046e-01  -3.345712e-01  1.220812e-01  -2.707424e-02  4.392332e-01  1.217476e-01  -1.768427e+00  4.533819e-01  -1.037406e-01  7.707033e-02  7.925971e-01  -4.529191e-01  2.451081e-01  -2.224871e-01  3.253552e-01  4.314604e-01  2.720396e-01  2.639865e-02  7.737881e-02  9.246182e-01  1.862402e-02  -5.950674e-01  -2.116331e-01  1.618083e-01  -4.485366e-01  -4.975240e-01  -3.937740e-01  -5.155310e-01  -5.283816e-01  -3.369436e-01  4.781466e-01  -6.893855e-02  2.687885e+00  2.647949e-02  -5.104618e-01  -4.639468e-01  2.311326e-01  7.744972e-02  4.156706e-01  -1.716374e-01  -9.789550e-01  1.258082e-01  -6.045005e-02  -5.610924e-01  -1.629645e-01  1.109117e-01  -6.764785e-02  -8.409641e-01  1.190439e+00  3.872369e-01  -4.622344e-01  -8.007316e-01  2.383605e-01  -2.102018e-01  5.452431e-01  -1.992438e-01  -1.286047e+00  5.536339e-01  1.790538e-01  -2.597437e-01  -1.331758e-01  -1.035060e+00  -9.840213e-02  -5.584905e-01  -4.562898e-01  -5.196770e-01  -5.895648e-01  -1.891259e+00  2.247055e-01  5.299186e-01  7.260313e-02  4.284275e-01  9.889700e-02  -5.313566e-01  3.784789e-01  2.104067e-02  -3.234288e-01  -2.692714e-01  -6.451942e-01  1.270564e-01  -1.042225e-01  2.004134e-01  -6.980707e-02  -3.577904e-01  3.240621e-01  4.385360e-01  2.419707e-01  4.655471e-01  -8.467315e-01  -1.762382e-01  1.408371e+00  3.980108e-01  -9.537671e-01  6.753432e-01  4.020886e-01  1.416304e-01  5.679676e-01  -2.766630e-01  -3.863551e-01  -2.571665e-01  8.158642e-01  5.194415e-01  -1.395615e-01  -9.371627e-03  -1.762256e-01  -4.572331e-01  2.862711e-02  -1.063251e-01  2.703083e-02  -2.334895e-01  -5.577118e-01  1.254243e-01  -1.084262e+00  -9.910789e-01  5.773241e-01  -8.838165e-02  -7.712041e-01  4.612806e-02  7.661737e-01  -3.990783e-01  9.238707e-02  8.460250e-02  -1.289015e-01  -5.458587e-01  7.900577e-02  1.077622e+00  -5.220194e-01  5.901870e-01  5.437702e-02  2.331207e-01  2.306975e-01  2.462687e-01  -4.340880e-03  -4.708403e-01  -1.943949e-01  -8.360655e-02  8.560487e-01  -2.129834e-01  -7.187472e-01  -7.778343e-01  -3.712682e-01  1.512437e-01  -6.109428e-02  -5.559647e-01  -1.119345e+00  1.368806e+00  -3.379613e-01  9.422964e-02  -9.720256e-03  -7.817061e-01  -1.990839e-01  -1.661866e-01  -5.632164e-01  2.762260e-01  3.782203e-01  -8.309199e-03  5.187892e-01  1.860679e-01  7.295341e-01  2.683744e-01  2.173454e-01  -5.442399e-01  3.831691e-02  -3.265710e-01  -5.318420e-01  3.838267e-01  1.050010e-01  -2.424880e-01  1.121159e+00  6.048479e-01  -2.408030e-01  -1.212211e-01  -5.444981e-01  -2.624044e-01  1.478434e-01  5.041527e-01  3.831740e-02  2.972141e-01  1.066523e-01  3.926397e-01  1.057391e-01  5.005485e-01  1.509005e+00  4.725672e-01  -5.003982e-01  -1.953381e+00  -1.448043e-01  -1.810298e-03  -3.235879e-01  1.654970e-01  3.249801e-01  -4.557480e-01  5.958520e-01  3.024385e-01  -2.229469e-01  4.168267e-01  -3.780557e-01  9.310057e-02  -3.437059e-01  2.275132e-01  4.436530e-01  3.255292e-01  3.923058e-01  -9.387556e-02  -4.331511e-01  1.674565e+00  2.709264e-01  -3.109149e-01  -5.087421e-02  4.266369e-01  -3.702761e-01  5.131088e-01  -2.936954e-01  -6.013349e-01  2.509189e-01  -3.099141e-01  1.253512e+00  -1.994034e-01  5.006769e-01  -2.011657e-01  3.782364e-01  -7.639071e-01  -1.681569e-01  -6.455753e-02  -1.876551e-01  -2.512366e-01  1.282869e+00  2.110711e-01  -3.651763e-01  -1.109596e+00  1.514052e-01  -4.282602e-01  5.364182e-01  1.974648e-01  8.760453e-01  5.752283e-01  5.492023e-01  2.704727e-02  -1.511525e-01  3.901150e-01  1.037473e-01  8.559314e-01  7.845901e-02  -6.117334e-01  1.561096e-01  -1.184860e+00  3.972471e-01  1.692258e-01  -7.546455e-02  7.674256e-01  7.720424e-02  8.189995e-01  4.853290e-01  -4.361306e-01  -4.012158e-01  -4.609734e-01  2.235859e-01  2.040226e-01  3.532975e-01  -1.136142e-02  -4.286769e-01  -4.135035e-01  1.816077e-01  -2.032568e-01  -2.361339e-01  2.693186e-01  3.477956e-01  -4.254975e-01  -1.542726e-01  -3.651566e-01  8.923040e-01  -7.033659e-01  1.429323e-01  -1.435510e-01  -4.828540e-01  -1.419839e-01  -8.022353e-01  6.917437e-01  4.521916e-01  -2.369502e-01  -8.345432e-02  2.586781e-01  7.339585e-01  -3.116461e-01  -6.462659e-01  5.116662e-01  -9.729338e-01  -4.536924e-01  1.487143e-01  -5.495488e-01  7.953428e-02  -1.102553e-01  -3.122365e-01  1.928836e-01  -1.171357e+00  -4.963928e-02  1.974757e-01  -6.405503e-04  4.799216e-02  -2.910511e-01  6.680376e-01  -3.976546e-01  -7.960765e-02  3.086016e-01  -2.932499e-01  -1.695070e-01  -2.880459e-01  -1.286387e-01  -4.671609e-01  -3.496233e-01  -2.018754e-01  -3.181425e-01  -4.271639e-02  8.690822e-01  1.714929e-01  -5.025224e-01  -6.480232e-02  1.194459e-01  -2.308289e-01  1.743126e-01  2.378323e-01  4.809240e-01  -7.214825e-02  8.413914e-02  -6.737815e-01  2.971953e-01  9.987304e-01  -3.425794e-02  4.951856e-01  8.966037e-02  -4.796051e-01  -2.277275e-01  -6.909910e-01  -6.997886e-01  -1.611797e-01  -5.980859e-01  1.004600e+00  -8.375008e-02  9.725356e-02  -6.895549e-01  -1.148825e-01  6.355979e-01  3.451356e-02  -5.204066e-02  -2.753648e-01  3.065086e-01  -6.547433e-02  -6.609572e-01  -3.401874e-01  5.362742e-01  5.561250e-02  -1.057919e-01  3.118261e-02  9.557876e-02  -7.307637e-01  -9.789835e-02  1.153309e+00  1.953726e-01  -1.317609e-01  -1.670239e-01  -8.485680e-01  -4.173619e-01  3.062093e-01  1.069656e-03  -2.141312e-01  6.837761e-02  7.652912e-01  -7.390537e-02  1.404951e-01  -5.928783e-01  2.093743e-01  -2.611877e-01  -7.143383e-02  2.662609e-01  -8.477505e-02  8.112678e-02  2.903099e-01  -3.894704e-01  2.139506e-01  -1.007461e+00  -9.751217e-01  -1.926096e-03  1.220045e-01  1.198799e+00  -1.063904e-01  -1.844530e-01  3.931275e-01  -1.905904e-01  -4.149032e-01  6.114770e-01  1.153259e-01  9.649331e-01  5.878013e-01  -5.700753e-01  5.134518e-01  8.371767e-01  -5.822010e-02  4.751297e-02  -2.702211e-01  1.892855e-01  6.639606e-01  -1.667678e-01  1.673825e-01  1.884700e-01  3.186936e-01  -8.077247e-01  2.596091e-01  4.625205e-01  -3.184223e-01  1.581371e-01  -4.646162e-01  -8.055356e-02  1.382475e-01  -4.717472e-01  5.188292e-01  7.683493e-01  2.297941e-01  1.712703e-01  1.457206e-01  -1.212491e-01  1.890812e-01  -6.169427e-02  5.126277e-01  -6.594507e-01  -4.372241e-01  -1.993958e-01  -2.597401e-03  1.360796e-01  -4.155293e-01  -4.528839e-01  -2.669309e-01  -1.359046e-01  1.751361e-01  8.580499e-02  1.938869e-01  -1.826593e-01  2.504594e-01  -1.534331e+00  -3.882270e-01  -4.917044e-01  4.258800e-01  -2.400742e-01  -1.303738e+00  2.058642e-01  -2.108851e-01  -7.856198e-03  -4.569916e-01  3.499977e-01  3.210326e-01  6.562468e-01  -8.736684e-01  -2.343963e-01  -3.384827e-01  1.164062e-01  -6.795871e-01  -3.153735e-02  2.033728e-01  6.177515e-01  -1.710534e-01  -3.720323e-01  6.786156e-02  2.502109e-01  -7.429619e-01  2.355511e-01  -8.900603e-01  4.918350e-01  2.126970e-01  6.811892e-01  -2.671837e-01  1.304829e-02  -3.745270e-01  -4.794903e-01  2.477380e-01  -4.674585e-01  4.561349e-01  4.711586e-01  -5.057404e-01  -6.946430e-01  2.489347e-01  4.905367e-01  6.318317e-01  3.626837e-01  -4.705103e-02  -1.130358e+00  -8.191690e-01  5.176821e-02  -1.723314e-01  -8.790630e-01  5.877594e-02  1.215137e-01  6.351627e-01  3.312601e-01  8.350821e-01  2.215648e-01  3.334826e-01  -7.004876e-02  -3.085853e-01  4.175849e-02  3.121910e-01  1.961973e-01  -6.979876e-02  -7.531627e-01  4.551349e-01  -4.184011e-01  1.901062e-02  -2.249488e-01  -4.552805e-01  3.745639e-01  2.334577e-01  -5.923211e-01  -2.043885e-01  -6.954818e-01  -9.733058e-02  9.317724e-01  -1.048524e+00  -8.906157e-02  -3.971588e-01  -4.428845e-01  -2.351114e-01  -2.116256e-01  -5.316940e-01  -8.408121e-02  1.887488e-01  3.896417e-01  2.997403e-02  1.481887e-02  -2.593887e-01  2.303508e-01  4.594072e-01  -1.758113e-01  -4.554185e-01  4.917378e-01  -7.816299e-01  3.770492e-01  1.379198e+00  8.709332e-02  -1.295992e-02  1.472564e-01  5.858230e-01  2.047836e-01  9.134971e-02  8.492021e-01  -4.091264e-01  -3.123117e-01  1.619163e-01  -8.320664e-01  -7.293460e-02  9.002224e-01  1.296508e-01  2.777362e-01  -3.791637e-01  -5.194941e-01  -7.009040e-02  2.503219e-02  1.846117e-02  -1.817061e-01  5.177730e-01  -1.354935e-01  -6.288613e-01  -4.272263e-02  -5.211485e-01  3.633747e-02  1.302942e-01  -9.475455e-02  -8.942869e-01  -3.604016e-02  4.003637e-01  1.644208e-01  -7.865953e-01  1.212450e-01  9.542549e-03  -1.820429e-01  1.159359e-01  -6.175620e-02  5.040751e-01  1.616022e-01  -3.744123e-02  -1.591469e-01  1.331214e-01  -8.993695e-01  -1.108679e+00  -4.286851e-01  3.593190e-01  8.338402e-01  -3.953568e-01  6.542413e-01  2.293310e-01  1.904351e-01  -1.929048e-01  1.989882e-01  8.771165e-01  5.221842e-02  1.338184e+00  1.087206e-01  -8.964857e-01  2.585414e-01  1.334081e-01  -5.950168e-01  6.356491e-01  5.035697e-02  7.205584e-01  -1.839178e-01  8.760577e-02  -1.087505e+00  -2.859858e-01  -2.383506e-01  5.243708e-01  4.645583e-01  -5.509787e-01  -4.468632e-01  1.002490e+00  3.373636e-01  3.313353e-01  -6.407709e-01  -2.083538e-01  2.503283e-01  6.231372e-02  1.000690e-01  -4.136596e-01  -3.903843e-01  -8.509296e-02  -2.210015e-01  3.375661e-01  1.430721e-01  2.606741e-01  1.434480e-01  1.086397e+00  -6.828322e-01  4.908147e-02  -1.608215e-01  4.782919e-01  -2.762127e-02  -1.425771e-01  1.101196e+00  1.459399e-01  -2.139371e-01  -2.881014e-01  8.905979e-02  -3.626871e-01  1.189153e+00  -4.150095e-01  -8.915239e-01  9.043428e-01  -1.771311e-01  -2.527473e-01  9.444509e-02  4.300430e-01  -4.805169e-02  -4.127392e-01  -1.285368e-01  1.923253e-01  3.864858e-01  4.898363e-02  2.670678e-02  -2.252405e-01  -2.062487e-01  6.588053e-01  1.693227e+00  1.297876e-01  -1.140552e-01  -5.713887e-02  1.585631e-01  -2.198757e-01  1.027217e-01  1.139627e-02  5.459374e-01  -5.594900e-02  -3.744617e-01  4.401319e-02  -3.590721e-01  1.248765e-01  -1.764618e-01  -6.135351e-01  9.859395e-03  9.191155e-01  -9.210134e-01  -9.147548e-01  4.092796e-01  -2.982485e-01  -2.366060e-01  5.286847e-01  -7.632828e-01  1.251237e+00  8.018399e-01  -1.809589e-01  -3.232036e-01  -4.295681e-02  1.140202e+00  -5.601501e-02  -4.388660e-01  -2.382140e-01  1.230648e+00  -2.542225e-01  -3.786166e-01  3.315369e-01  3.154332e-01  2.047863e-01  -4.383361e-01  8.133058e-02  8.771423e-01  -1.115777e+00  1.116710e+00  6.376079e-02  -5.575420e-02  8.854541e-01  2.772495e-01  2.842630e-01  5.451304e-01  -2.092589e-01  1.028743e-01  -9.124182e-01  4.359282e-01  8.761756e-01  -3.230369e-02  2.269507e-02  7.249223e-02  1.595857e+00  -1.987887e-01  -4.574908e-02  1.575103e-01  -1.190215e-01  -3.104432e-01  -2.141714e-01  2.869569e-01  -7.711547e-01  -2.707359e-02  1.940660e-01  4.638829e-01  -1.365062e-01  2.421754e-01  -5.716226e-01  -3.371915e-01  5.189883e-02  -5.947016e-02  2.010648e-01  -1.859887e-01  9.818320e-01  1.940193e-01  2.536718e-01  -4.917856e-01  3.867407e-01  5.503839e-01  4.545606e-01  3.324401e-01  2.582633e-01  -3.807992e-02  4.292454e-01  -1.844500e-01  -1.193416e-01  4.645974e-01  -1.833848e-01  4.798698e-01  2.242276e-01  2.291944e-01  4.081097e-01  -3.364579e-01  4.613214e-01  -1.894100e-01  -3.626305e-01  8.713406e-02  1.992613e-01  1.141743e-01  -7.505738e-01  8.401178e-01  6.812838e-01  2.385492e-01  2.204319e-01  -8.284415e-02  -2.526498e-01  4.589243e-01  -3.544142e-02  -5.332685e-01  4.579014e-01  -5.745708e-01  6.018606e-02  -6.800253e-01  -5.445864e-01  -8.328225e-02  -4.026097e-01  1.918826e-01  3.225932e-01  -1.125921e+00  -6.411973e-02  2.051929e-01  -2.321586e-01  -5.008973e-01  9.952106e-02  -3.157987e-01  -8.587147e-02  -9.527120e-02  -9.022973e-02  -3.462749e-01  2.312917e-01  -1.920803e-01  1.540732e-01  6.966286e-01  -3.435272e-02  -5.842272e-02  5.024995e-02  -8.712241e-01  2.947791e-02  1.215656e-01  3.082534e-02  2.188977e-01  3.816523e-01  -6.017354e-02  -2.285592e-01  6.864294e-02  1.594250e-03  -4.992725e-01  -5.286064e-02  1.477300e-01  5.152281e-01  1.364443e+00  2.714697e-02  -1.856678e-01  -6.848312e-02  2.981977e-01  8.714079e-02  8.859071e-02  3.995021e-02  1.014574e+00  -2.233534e-01  -9.230362e-01  1.140009e-01  -2.135147e-01  1.135324e-01  3.230327e-01  2.524708e-01  -7.413235e-01  -1.082837e+00  -1.546131e+00  -7.437416e-03  -1.265140e-01  -4.220531e-01  1.620047e-01  -3.726279e-01  1.199590e+00  -3.923430e-01  -1.315474e-01  5.432715e-02  9.747939e-01  -6.443822e-01  -2.071338e-01  -1.511766e-01  6.100508e-01  -1.878613e-01  -3.476116e-01  -3.401263e-01  8.854525e-01  1.247070e+00  7.740950e-02  3.634678e-02  -3.692069e-01  -7.795307e-01  -3.094410e-01  -8.521388e-02  -2.611613e-01  -6.225768e-02  -3.418014e-01  1.717286e-01  1.152550e-03  1.003328e-01  1.408630e+00  -4.276246e-01  5.008155e-01  7.341917e-01  2.617261e-01  2.270266e-02  -3.453528e-01  -1.010731e+00  -1.782062e-01  -2.515447e-01  2.578535e-01  -2.203631e-01  7.428789e-01  6.097336e-01  1.555310e-02  6.665009e-01  -1.004435e+00  -1.000997e-01  1.268172e-01  -1.289865e+00  1.083480e+00  -2.007933e-01  -1.921570e-01  6.477087e-01  -7.395503e-01  4.888362e-01  -9.641589e-01  -8.067064e-02  -2.101758e-01  1.048693e-01  1.090233e-01  5.430212e-01  -7.911250e-02  1.047752e+00  2.198064e-01  -3.845038e-01  4.460515e-01  -5.492860e-01  1.761308e-01  -6.740652e-01  -3.647295e-01  8.143377e-02  -7.436948e-02  3.298069e-01  5.626772e-01  -5.811814e-02  4.989287e-01  -2.300138e-01  6.054847e-01  8.681589e-01  -4.129305e-01  1.926296e-01  -1.549901e-01  3.385693e-01  4.109231e-01  2.867897e-01  1.076266e+00  -1.352525e+00  2.109953e-01  7.707570e-01  3.920722e-01  -4.020266e-02  -3.439121e-01  -3.363479e-01  2.386051e-01  6.738384e-01  -6.184319e-01  -3.375146e-01  -1.272030e-01  4.337898e-01  6.002307e-01  -7.414435e-02  -1.319347e+00  -5.322847e-01  1.393023e+00  -5.363390e-01  -7.456459e-01  -1.136610e-02  -1.970506e-01  -7.026160e-01  -1.193419e+00  7.336320e-01  -1.065964e-01  1.473801e-01  -5.685096e-01  -2.350725e-01  -2.063093e-01  -8.099095e-02  -2.794125e-01  5.859008e-01  -4.113433e-01  -6.035047e-01  1.436740e+00  -8.161654e-01  3.982196e-01  -4.382794e-01  4.958950e-01  -2.523786e-01  -1.435462e-01  -2.758028e-01  4.656341e-01  -1.756728e-01  1.551535e-02  -7.560855e-01  -5.037612e-01  8.630071e-01  3.640324e-01  1.095884e-02  -3.886478e-01  7.309421e-01  1.813147e-01  -4.065606e-01  -1.867963e-01  -7.906538e-01  -2.572488e-01  -2.522492e-01  7.927790e-01  -3.671842e-01  -3.302334e-02  1.570299e-01  4.602897e-01  1.929570e-01  -1.233850e-01  3.977232e-02  -9.366281e-02  1.324268e-01  -2.491887e-01  9.360015e-01  1.489044e-02  1.961108e-01  -8.021623e-02  -2.331856e-01  -2.830569e-01  -7.943299e-01  9.441680e-01  8.366896e-02  8.223878e-01  -2.895041e-01  -3.113836e-01  -7.935496e-02  4.674424e-01  -3.349569e-01  1.400034e-01  7.941203e-01  2.172292e-02  4.045595e-02  2.952400e-01  1.516970e-01  2.402785e-01  3.606467e-01  -3.727025e-01  -1.943446e-01  -4.390290e-01  -2.589328e-01  -1.864982e-01  -8.117632e-01  5.260507e-01  -8.942767e-02  9.033844e-02  5.089763e-01  -7.235084e-01  2.506543e-02  6.210054e-01  -4.295627e-01  -1.203838e-01  -6.351488e-01  -1.334009e+00  9.020438e-02  -4.158384e-01  -9.899349e-01  1.146357e-01  1.541786e-02  3.865178e-01  -1.702668e-01  -1.235303e-01  -3.603319e-01  -6.280176e-02  -3.105776e-01  -3.224410e-01  -4.387946e-01  4.571629e-01  -7.902641e-01  7.063805e-01  2.501972e-01  -5.790921e-02  3.896324e-01  8.732780e-02  -7.413715e-02  -2.003411e-01  2.877726e-01  2.243610e-01  1.955213e-01  8.549856e-02  -7.267685e-02  -9.927268e-02  -1.619326e-01  1.681279e-01  1.574743e-01  1.331786e-01  3.620923e-01  1.889148e-01  -2.803587e-01  2.187327e-01  2.511203e-01  3.443319e-01  1.490572e+00  8.460659e-01  -2.984120e-01  -2.494965e-01  -1.429399e-01  5.953081e-01  -2.462677e-02  -2.458507e-01  -4.250030e-01  1.159161e+00  1.741038e-01  -2.432542e-01  5.037118e-01  6.820846e-01  1.908754e-01  -1.007542e+00  1.014708e+00  -1.748967e+00  -4.001772e-01  -1.245054e-01  -3.838743e-01  5.003143e-01  -2.919540e-01  -1.817225e-01  1.769966e-01  2.077413e-01  -1.848907e-01  -4.298343e-01  -7.988978e-01  -4.151152e-01  1.070785e-01  -8.738872e-01  -5.419297e-01  -6.041644e-02  1.625986e-01  4.966216e-01  -2.365991e-01  6.438221e-01  2.403688e-01  -6.542116e-01  1.043411e+00  -2.264539e-01  -3.424502e-01  -6.620719e-01  -1.553085e-01  4.127929e-01  3.389938e-01  4.213308e-02  2.336217e-01  1.682857e-01  -9.708197e-01  -1.802342e-01  3.139064e-01  6.548717e-01  -1.078253e-01  4.399346e-01  -2.273156e-01  9.547745e-02  -3.552820e-01  1.472533e-01  -3.880805e-01  3.409883e-01  -8.304464e-01  -1.179491e-01  1.887241e-01  2.363966e-01  -2.076088e-01  -3.270605e-01  1.191272e-01  -7.285132e-01  -2.009241e-02  3.635614e-01  -3.856468e-01  4.017541e-01  3.960848e-01  -3.542548e-01  -3.535539e-02  -4.090855e-01  6.507602e-01  -5.720319e-01  8.529047e-01  5.857717e-02  1.442230e-01  -2.911906e-01  8.267580e-01  -5.111722e-01  -3.162570e-01  1.912416e+00  4.094490e-01  1.729516e-01  1.390788e-01  8.738133e-01  2.424935e-01  -1.202661e-01  2.657981e-01  -3.627777e-01  7.549319e-02  2.480111e+00  -3.977446e-02  1.493106e-01  -6.494839e-02  2.061590e-01  -4.829843e-01  -1.247974e-01  5.930873e-01  -8.947650e-02  -4.801039e-01  -1.063963e-01  -2.676111e-01  -1.383652e-03  4.358321e-01  6.068948e-03  -4.085797e-01  -1.776316e-01  4.435869e-02  7.238896e-01  2.197939e-02  1.130596e-01  -6.542192e-02  -2.361672e-01  4.973958e-01  -1.372193e-01  8.422774e-01  6.970091e-01  -7.891154e-01  1.998768e-01  3.996221e-01  1.067947e-01  -5.912599e-01  -3.178739e-01  7.955765e-03  -2.931990e-01  3.822455e-01  1.257004e-01  2.825429e-02  -6.542283e-01  6.307450e-01  -2.712595e-01  4.256822e-01  -2.164554e-02  2.781884e-01  -1.180074e-02  -5.996497e-01  1.307358e+00  -7.188588e-01  6.315215e-02  -2.621086e-01  -6.358083e-02  8.357960e-02  -6.353571e-01  2.399215e-01  4.170299e-01  -8.524116e-02  -2.642767e-01  -5.709473e-01  3.787281e-01  3.994348e-01  5.738345e-01  6.632095e-02  1.943804e-01  4.745932e-01  -4.280618e-02  -5.218564e-01  -2.141738e-01  -1.027658e+00  -4.787934e-02  -1.474464e-01  1.236380e+00  -7.699353e-02  -8.788715e-02  5.021938e-01  1.963599e-01  -6.788757e-02  -7.551382e-02  -6.307012e-02  3.520471e-01  8.157014e-02  -1.040342e+00  1.460401e-01  6.928866e-02  6.072485e-02  1.064937e-01  -3.912344e-01  -1.336487e-01  -5.531735e-01  2.907525e-01  2.034730e-01  -4.186318e-02  -2.755624e-01  -5.542796e-01  4.321429e-01  2.484795e-01  -5.852673e-01  4.750971e-01  2.990692e-01  -2.130162e-02  3.321168e-01  -2.891271e-01  -9.749203e-02  -1.691856e-01  2.496480e-01  -8.290669e-01  -1.051120e-01  -8.594244e-02  -1.452058e-01  4.706319e-02  -1.066837e+00  4.933317e-01  5.187153e-01  -1.789168e-02  3.843389e-02  -1.192740e+00  -1.106004e-01  4.456848e-01  -4.214018e-01  -3.007393e-01  1.474341e-01  -1.467822e+00  2.366333e-01  -4.994923e-01  -1.271251e+00  8.191354e-01  -1.348499e-01  1.933916e-01  -2.309408e-01  -3.269141e-01  7.554152e-02  2.829678e-01  -7.648987e-02  5.437478e-01  -2.707199e-02  2.067186e-01  -6.904011e-01  1.985036e-01  4.168652e-01  3.429766e-02  -2.638441e-01  -6.380561e-02  4.756283e-02  -1.897754e-01  2.063077e-01  1.951492e-01  -2.582057e-01  -2.635666e-01  3.486023e-01  2.807307e-01  5.402866e-02  3.530889e-01  1.770633e-01  5.868098e-03  1.357151e-01  2.906340e-01  -2.182398e-01  -6.920165e-02  -2.770481e-02  -1.534966e-01  1.105744e+00  4.957795e-01  -2.495653e-01  -3.438451e-01  -1.782327e-01  2.073963e-01  3.536622e-01  -7.831477e-02  -3.922339e-01  1.344533e+00  2.020811e-02  3.791617e-01  1.552967e-01  2.785796e-01  9.632595e-01  -8.710555e-01  -6.591095e-02  -2.820563e-01  4.115130e-01  2.853261e-01  -2.273767e-02  3.482432e-01  4.402279e-01  8.742093e-02  6.643655e-01  3.463861e-01  6.060755e-02  -1.042477e-01  -1.556792e-01  -5.009204e-01  3.462258e-01  1.855587e-01  -2.443799e-01  -3.010544e-01  6.477794e-01  5.392409e-01  7.133386e-01  -3.288310e-01  -3.739735e-01  -2.367390e-01  -5.134887e-03  4.410594e-01  -1.615459e-02  -1.980065e-01  -5.667723e-01  6.220122e-03  1.566017e-01  6.208639e-01  3.583553e-01  7.589496e-01  -8.049139e-01  -4.409980e-01  -1.112996e-01  -3.522976e-01  -2.183301e-01  3.737633e-01  7.672234e-01  -4.885805e-02  1.947641e-01  1.070475e+00  -5.102337e-02  5.059459e-02  2.602956e-02  -3.437244e-01  -1.996979e-01  -9.517457e-02  -8.728199e-01  -5.345024e-01  6.197539e-01  -4.053913e-01  2.344430e-01  -8.793777e-02  -4.533223e-02  9.759487e-01  -5.298424e-01  6.772672e-02  -5.764071e-02  